resto_rome_cheap_british_3stars_address 0.0940415 -0.516251 0.34585 -0.819178 0.328269 0.732096 -0.301971 0.578344 -0.193679 -0.0390527 -0.513806 0.675189 -0.700822 -0.375107 -1.15066 0.763532 -0.46406 0.475269 -1.05969 -0.258548 0.114403 -1.24374 0.979058 -0.311218 0.34557 0.0828149 -0.786312 1.08959 0.702719 -0.0841581 -0.59607 -1.24903 1.18404 -0.33457 -0.51378 0.0547793 -0.180159 0.367153 0.345059 -0.8827 0.670068 -0.34317 0.472474 0.772787 0.305622 0.52232 0.114392 0.561806 0.833358 -0.227534 -0.560075 0.246199 1.08033 0.148988 0.599547 0.513365 0.958114 1.07221 0.923042 0.524111 0.697437 -0.510342 -0.48585 0.856059 
resto_bangkok_expensive_vietnamese_8stars_phone -0.633355 0.717257 0.140469 -0.0391075 0.574991 0.654959 -0.205668 0.296709 -1.16655 -0.713048 -0.169027 0.0106421 -0.399274 -1.30856 -1.15714 -0.0224785 -0.928277 0.455349 -0.957546 1.06882 -0.19992 0.598978 0.456635 0.705784 -0.198975 -0.521937 -0.140294 0.793689 -0.659945 0.765852 0.328551 0.128621 0.414933 0.973427 -0.846995 0.101838 0.272601 -0.0276932 -0.469674 0.510625 -0.648446 -0.252525 0.139312 -0.615196 0.433169 -0.0716957 0.987574 0.300741 0.346441 0.785364 -1.13244 0.825029 0.58874 -0.843232 0.237987 -0.185059 -0.118062 1.2542 -0.814714 0.422856 0.621775 1.15299 0.0101513 -0.963228 
resto_madrid_cheap_indian_6stars -0.33786 -0.0182086 -0.922068 -0.241158 -0.355572 -0.329032 -0.296226 -0.749488 0.257721 -1.63589 -0.748487 0.575408 0.872467 -1.34593 0.0363481 0.391077 -0.305889 -0.550879 -0.755423 0.14236 0.81311 -0.0943799 -0.0443671 1.40732 -0.28487 -0.0527218 -1.36338 0.500438 -0.199088 -0.722963 0.25186 -1.08491 -0.236494 0.192526 0.805363 -1.07428 -1.29301 -0.335107 1.44013 -0.212078 -0.520548 -0.33221 0.875314 1.02815 -0.0545368 1.2515 1.19694 0.570763 -0.497231 -0.601424 -0.033011 0.534072 0.564555 0.160115 0.844844 1.08563 -0.151828 0.814663 -0.131302 -0.449019 0.679409 -0.485669 -0.408618 -0.470287 
resto_paris_expensive_italian_8stars_address -0.371592 -0.773711 -0.0806989 -0.539288 -0.907053 0.446846 -0.414887 0.882407 -0.41344 -0.311451 0.934228 1.00528 -0.357681 -0.565119 -0.693658 -0.82563 -0.482305 0.239616 0.377664 0.877014 0.87875 -0.283007 0.195309 0.389248 -0.31095 -0.611306 -0.0308576 1.01353 -0.139575 0.999122 -0.56511 -0.659444 0.905125 -0.0406093 -0.712576 0.241292 0.321027 -0.804966 0.955598 0.187037 0.380956 -1.15007 0.31413 0.0514217 1.48743 0.547569 0.659327 -0.0703732 -0.0579774 0.418841 -0.538108 0.686133 0.886433 -0.585861 0.506644 -0.649809 0.236079 0.869852 -0.586724 0.139282 -1.25632 -0.500225 -0.0014603 -0.493345 
four 0.413812 -0.0707881 -0.133883 -0.135051 -0.161622 -0.992464 1.42176 -0.741495 -0.212503 -0.224344 0.14544 1.60205 0.233595 -0.919013 -0.866612 -0.180929 0.410152 -0.0516788 0.0782494 0.626048 0.762338 0.0266006 -0.256026 1.9586 1.02259 -0.0696901 -0.74738 0.560463 0.244171 1.2953 -1.29293 -1.06017 0.453492 -0.0227928 -0.555872 0.655092 -0.012137 -0.0269074 -0.884137 -0.138299 -0.233861 0.476265 0.125713 -0.0441917 -0.344328 1.31703 0.619113 0.238696 -0.587156 0.03793 -0.858412 -0.800969 0.11072 -0.0822085 0.440734 -0.877199 0.773428 0.773213 0.32431 -0.253401 -1.01704 1.05734 0.945844 1.13457 
prices -1.09406 -0.50079 -1.25943 -0.553853 0.386792 -0.248462 0.146735 -0.5309 -0.150105 0.78219 0.492363 -0.852086 0.0370103 -2.17511 -1.04812 1.58234 -0.407479 -0.0112523 -0.726267 0.570463 0.237022 0.128158 0.321801 1.42374 -0.155247 0.163052 -0.834909 0.681541 0.0669337 -0.426151 -0.681542 0.270207 0.272483 1.17038 0.179725 0.958535 -1.14986 -0.394537 1.1194 -0.538337 -0.370836 0.353144 1.18002 0.498104 -0.0231735 -0.435034 -0.294175 -0.55732 -0.908858 0.376052 -0.67909 -0.607399 1.04035 0.713286 1.12789 0.885857 -0.476165 -0.259263 0.946026 -0.523761 0.604822 0.675173 0.960697 0.441876 
resto_london_expensive_italian_4stars_address 0.514521 0.090908 -0.486847 -0.981467 -0.871055 0.256444 -0.59475 0.0366692 -0.667477 -0.601198 -0.637421 0.0843095 0.342178 -0.951551 0.317107 -0.209113 -0.923978 0.709793 -0.233152 -0.529118 0.0478578 -0.967283 0.620556 -0.392557 -0.148611 0.683543 -0.250846 1.05269 -0.514929 -0.301823 -0.0177265 -0.279778 -0.288896 0.797043 0.077845 -0.0337912 -0.770043 -0.516774 0.162432 -0.477188 0.740792 -1.2297 0.113723 0.270383 -0.327425 -0.0860497 0.890765 1.01233 0.815053 0.551247 -1.34091 0.858871 -0.760408 -0.264015 1.20599 -0.45818 0.297579 0.730068 -0.310372 -0.261027 -0.53966 0.847515 -0.32781 0.126617 
asian -0.24932 0.823804 -0.944916 0.345982 0.0783512 0.0442202 -0.390145 -0.562211 -1.14209 0.218098 0.110453 -0.59576 -0.424822 -0.31655 0.441325 -0.759496 -0.252011 -0.687916 -0.759182 1.0486 -0.418867 -0.0717934 0.683362 0.895483 -0.204998 0.578946 -1.44773 0.513915 -0.696389 0.842582 0.228355 -1.44592 -0.346564 -0.256664 0.369158 1.24649 -0.570976 -0.423095 0.140672 -0.139405 -0.677252 -0.510863 -0.359639 1.22715 0.308592 -0.341814 -0.487991 -0.23491 -0.0572153 -0.0476138 -0.855505 0.616203 0.0117483 -0.272018 0.478544 -0.120945 0.191742 0.851904 -0.320073 0.506633 -0.038665 -0.142137 0.396336 -0.831014 
resto_seoul_expensive_cantonese_2stars -0.259109 -0.0473116 -1.41846 -0.687177 -0.682429 -0.205854 0.186135 0.279021 0.147455 -1.12678 0.283088 -0.0365999 -0.250315 -1.07294 -1.55184 0.391498 0.594213 -0.637936 0.689815 0.178424 0.376972 -0.311658 0.617992 1.04081 1.0958 -0.568636 -0.44587 1.66129 -0.867694 -0.3165 -0.812681 -0.585417 1.13149 1.87075 0.597165 0.966147 -0.218322 -0.109331 0.885847 0.453264 -0.912062 -0.966195 0.262861 1.45261 0.485804 1.56577 0.188089 0.275485 0.0706133 0.209837 -1.59156 -0.805233 0.891445 0.584924 1.50048 1.03121 0.280366 1.49642 -0.11148 -0.235945 -1.02402 0.34545 0.290182 -0.172313 
yu_garden_phone -0.0463165 -0.181529 -0.302235 -1.21532 -0.391462 1.47624 -0.714644 0.373914 -1.15558 0.107563 1.26425 0.822488 -0.490254 -0.883398 -0.74854 0.499347 -1.00394 0.742837 -0.674899 1.35223 0.352378 -0.67068 -0.769791 0.136068 0.331219 0.20886 0.42116 0.394506 0.105299 0.523314 -0.422012 -0.389926 0.502097 1.29682 -0.60107 0.196067 -0.485395 -0.508173 1.16533 -0.185651 -1.20572 -0.61979 0.167473 -0.524441 -0.421485 0.0455625 -0.538619 -0.0973185 -0.464766 0.314929 0.0871797 0.562859 -0.682375 0.967165 -0.303323 1.57645 0.515252 0.778892 0.625991 -1.10303 0.0770112 0.511095 -0.642362 -0.132994 
resto_paris_expensive_spanish_5stars -1.17093 -2.29003 -1.6341 -1.60638 0.813141 0.765063 -1.99133 0.538956 -1.61691 0.330392 0.297875 0.675692 0.21003 -0.772794 -1.44507 1.0207 -0.548628 -0.950333 0.220128 0.867805 0.72577 -0.932164 0.558528 0.808348 -0.0613312 -0.934529 -0.934849 1.48462 0.58114 1.18627 -1.41972 -1.97501 0.663113 2.85327 0.500635 1.82376 0.435469 0.180672 0.0510304 -0.130466 -1.98574 -2.02582 0.177253 1.73819 1.95652 1.35285 0.745738 0.0122612 -0.50503 -0.792014 -0.857248 -1.15721 0.305018 1.11261 2.27299 1.30639 1.05169 0.417418 -0.0983464 -0.677106 -1.30479 -0.0168152 1.19773 -1.41692 
resto_paris_moderate_italian_4stars_phone -0.137792 0.474823 -1.11313 -0.360136 -0.741477 -0.397363 -1.00785 0.0857866 -0.472118 0.617174 -0.211339 1.0472 0.105716 -0.376596 -1.04961 0.785291 -0.559588 -0.321745 -0.9954 -0.359068 0.513263 -0.224466 -0.448447 0.997051 1.08597 -0.140172 -1.2206 -0.238998 0.172711 0.988521 -0.803475 0.341368 1.06904 0.991459 0.233359 0.566619 -0.344425 -0.184899 -0.416102 -0.943273 0.0160412 -0.462995 0.796093 0.425063 0.108123 -0.570244 -0.643421 0.653085 0.0542997 -0.356232 -0.326835 -0.443014 -0.671996 0.245392 -0.0224558 0.349863 -0.827267 0.640405 0.109053 -0.53367 -0.450217 -0.438301 1.11531 0.655389 
hate 0.0751261 -0.524581 -1.21767 0.136601 -0.731733 0.00712473 -0.542284 0.121278 -0.613187 -0.419806 0.526657 0.0835465 0.596552 -0.430352 -0.493791 -0.804429 -0.55189 -0.251466 0.105676 -0.283441 0.0414949 -0.433335 -0.450989 1.13562 -0.103978 -0.868383 0.526341 0.347377 0.465694 -0.201726 -0.811182 -0.0890069 0.374619 0.416914 0.586052 -0.534562 -0.789115 0.651945 0.172729 0.835517 0.371134 0.00350436 -0.765587 1.20753 0.426861 -0.0268489 0.494943 -0.835295 0.11707 -0.165557 -0.185102 -0.255883 0.429237 0.295839 -0.17403 -0.521807 0.402043 0.171265 0.936245 -0.084609 -0.115746 -0.657618 0.546776 -0.0632389 
resto_london_moderate_british_5stars_phone -0.690083 -0.245914 0.245634 0.153239 0.687932 0.349983 -0.640319 -0.109698 -0.541748 -0.315553 0.929389 1.01028 -0.532388 0.164591 -0.836599 -0.379575 0.15958 -0.532833 0.614345 -0.424202 -0.262808 -0.418279 1.22989 1.04043 0.792025 0.275235 0.178881 0.87259 -0.75275 -0.0512162 0.0737673 -1.30243 -0.590454 0.878166 -0.353804 1.14986 -1.29661 -0.502575 0.628776 0.88027 -0.892896 -0.722844 0.69747 -0.268741 0.736816 0.106424 0.573298 0.183604 0.822327 0.137006 -0.0430568 0.341967 0.996141 0.487329 0.0969073 0.308346 0.764674 0.154337 -0.00047271 -0.88791 -0.831996 -0.350366 -0.0661728 -0.293835 
resto_tokyo_cheap_thai_6stars_phone -0.844781 -0.138131 -1.18919 -0.271474 -0.410532 0.854336 -0.0355059 0.440725 -0.428193 0.0312927 0.0294887 0.209387 0.0188152 -0.698852 0.0638379 -0.127064 -0.831663 -0.0240864 0.711707 -0.41556 0.373183 -0.356063 0.598057 1.0042 0.17859 0.134234 0.519999 -0.256247 0.885944 -0.0744577 -0.542842 -1.14657 0.397316 0.205375 -0.207531 -0.487555 0.125702 -0.31706 0.102137 0.882823 -0.709752 -0.427872 -0.630769 0.371866 0.60246 0.575626 0.650319 0.805767 -0.952053 -0.145218 -0.592395 0.750956 -0.313894 0.630777 1.27586 0.573439 0.102779 -0.298074 -0.436652 -0.584531 0.419823 0.346635 0.977422 -0.518194 
resto_london_cheap_spanish_3stars_address 0.638628 -0.739205 -0.0939947 -0.803871 -0.083482 0.486542 -0.494519 -0.12426 -1.21152 -0.0684122 0.573697 0.210623 0.0749535 -0.513414 -0.326033 0.93408 0.605129 -0.842849 -0.200554 0.501365 0.921714 0.35109 0.0211008 1.11085 -0.372894 -0.707337 -0.0546095 0.573884 -0.176411 0.218367 -0.669413 -0.567707 -0.469051 0.585155 -0.436956 0.476033 0.264812 -0.229933 0.847003 -0.258602 0.721637 0.135053 0.727844 -0.637954 -0.075592 0.483939 0.754752 -0.33813 0.600872 -1.01689 0.351681 0.0148307 -0.704103 0.284772 -0.390834 0.055392 0.724956 0.226017 0.986147 0.242539 -0.737743 -0.654827 -0.00817481 -0.380037 
resto_beijing_expensive_vietnamese_3stars_phone -0.611539 -0.706906 -0.384201 0.601845 0.608512 0.207983 0.124584 -0.410709 -0.0411771 0.230543 0.189277 0.0324906 -0.819003 -1.18511 -0.0388831 0.52511 -0.273257 -0.505294 -0.933558 1.09633 0.782267 0.667805 -0.0725316 0.525825 0.946156 -0.419527 -0.160224 1.07827 -0.287958 0.35309 -0.732153 -0.384114 0.214541 -0.447056 -0.578061 -0.209893 -0.0111989 -0.0637652 0.560991 -0.728237 0.57404 0.687413 0.421861 0.490242 0.798874 0.977262 -0.962728 0.295058 0.526159 0.690321 0.310834 0.0948819 0.564965 -0.3389 0.641234 0.173082 0.919454 0.80498 0.885614 -0.963279 -0.960529 1.17453 0.863593 0.516035 
resto_beijing_cheap_thai_1stars_phone -0.30654 0.129582 -0.0824808 -1.27517 -0.86186 0.439209 0.179963 -0.495818 -1.08237 0.365088 0.298546 0.518335 0.367877 -1.06221 -0.688197 0.711647 0.176563 0.548755 0.22232 0.962305 0.0376533 0.106909 -0.207241 0.703416 0.184109 -0.655192 -0.310788 0.271573 0.486829 0.406743 0.0135126 -0.778346 0.545591 0.278805 0.509844 0.118009 0.139214 0.329157 1.03788 -1.04095 0.50565 0.251287 0.13949 0.00684154 -0.237533 -0.459072 0.316833 0.293752 -0.0350697 -0.665556 -0.35201 0.450816 0.949338 -0.917102 0.48238 0.164669 0.048107 -0.31502 0.395385 0.488823 -0.532224 0.0735719 0.340487 -0.574343 
resto_london_expensive_indian_7stars -0.436987 -1.75664 -0.658692 -1.23921 0.418024 1.4099 -0.902736 -0.18245 -1.63545 0.0173949 1.37903 1.15461 0.0392815 -2.39756 -0.686785 0.245078 -1.385 -1.23145 0.00585795 0.936299 1.20736 -0.276131 0.548209 1.97502 -0.387621 -0.157693 -1.4718 1.63718 -0.887969 0.556518 0.161333 -0.875722 0.980781 1.79588 0.504972 1.69226 -0.457298 0.504739 0.371829 0.42567 -0.846264 -1.12041 0.607827 0.28123 0.896937 0.906653 0.914232 0.245289 -1.16618 -1.30572 -1.62303 0.803813 0.569601 0.622366 1.64732 1.81777 1.18663 0.787876 0.850136 -0.955889 -0.627229 -0.225385 1.4943 0.288711 
sala_thong_post_code 0.485481 -0.526282 0.0638169 -1.31266 0.572754 -0.238634 -1.27191 -0.753303 -0.118666 -0.280398 0.208149 1.28591 -0.489222 -0.71442 -0.302049 0.284026 -0.0682251 -0.0311713 -0.689298 -0.371947 0.405942 -1.00095 1.1013 0.507495 -0.608766 0.736318 -1.18772 0.122961 -0.320162 -0.0276147 -0.0950634 -0.0653948 0.496259 1.26665 0.0703139 0.407228 -1.37145 -0.911387 0.657562 0.265994 -0.525115 -1.21011 -0.540783 1.09675 -0.291291 0.578051 0.376067 0.831819 -0.348972 0.461114 0.419077 0.862799 -0.310931 0.979048 1.56544 -0.921967 -0.350132 0.905221 0.619545 0.159835 -1.08377 0.878984 1.29583 -0.317534 
resto_beijing_expensive_cantonese_8stars_phone -1.06372 -0.297274 0.339249 -0.889274 0.422602 -0.219493 -1.00442 0.254363 -1.12122 -1.01253 0.193332 0.780481 0.540056 -0.592477 0.469615 -0.0458186 -0.920554 0.616414 -0.675374 0.903703 0.827038 -0.29154 -0.468615 0.865345 1.17827 0.0507409 0.290097 -0.264982 0.573821 -0.507311 0.0168648 -0.400591 0.863182 0.66661 0.410071 1.15469 -0.195108 -0.143567 -0.346999 0.726999 -0.657533 -1.11244 -0.142185 0.645498 -0.281065 1.05473 -0.234547 -0.565891 0.281637 -0.790918 -0.0784344 -0.678562 1.01481 0.191753 0.245083 0.142582 0.935816 0.15505 0.466027 -1.04915 -0.692838 -0.415449 0.0982063 0.81193 
paris -0.373197 0.665153 0.22593 -1.33661 0.309827 0.449577 0.172445 -0.580708 -0.549925 0.298646 0.941381 -0.53188 1.11343 -0.891991 -0.300348 -0.18896 -0.27441 0.355111 -0.0780887 0.453865 0.553358 -0.754097 0.197373 1.73771 0.0821364 1.10523 -1.33725 0.785885 0.696424 0.0625389 -0.61098 -0.225717 2.09467 -0.421233 -0.0366994 0.80364 0.343015 0.165136 0.554918 0.697539 0.167755 -0.056093 0.240485 0.283273 0.308461 0.327275 1.43696 0.895631 -1.83309 1.0758 -0.206651 0.633554 0.669378 -0.0377323 0.320359 0.725223 -0.23252 -0.176526 -0.741182 0.0193863 0.211015 0.577583 -0.49292 0.937652 
resto_madrid_moderate_french_6stars -1.12514 0.196179 -0.41021 -1.535 -0.012248 1.07573 -1.11095 -0.1869 0.82518 0.468371 -0.379693 -0.200527 1.36716 -1.46737 -1.17613 1.25397 -0.66707 -0.91017 0.505559 -0.24151 1.30348 -1.1893 -0.530059 0.253989 0.294998 0.168036 -0.877466 0.474326 -0.748346 0.325872 -1.0271 -0.816947 -0.538419 1.70018 0.0636275 1.149 -1.587 0.419814 0.831482 -0.841471 -1.1975 -1.01136 1.40356 -0.375475 0.774537 1.27004 -0.0657112 -0.189406 -0.614541 -0.742688 -1.17453 0.464114 -0.701428 -0.328225 0.359114 0.303309 1.45339 -0.206954 0.406124 -0.57737 -0.59775 0.945204 1.32751 -0.0539891 
resto_rome_moderate_french_6stars_address 0.791996 -0.896356 -0.818394 -0.32569 -1.34979 -0.0835627 0.451337 0.474263 -0.955407 -0.532619 -0.693796 -0.0171464 0.824167 -1.69854 0.107882 0.177961 0.486902 0.414116 -0.435687 1.28802 0.0141508 0.706782 -0.000535621 0.76213 -0.319844 -0.727554 -0.337839 0.582029 0.806819 0.0361608 -1.16667 0.140153 0.773724 0.229312 0.478484 0.275264 0.0547874 0.155444 -0.346647 -0.919705 -1.20928 -0.612292 1.01276 -0.631069 0.66878 -0.161345 0.234453 -0.156654 0.221978 -0.0269443 -0.914288 0.395828 -0.333114 -0.621058 1.12495 0.244938 -0.314617 1.27 0.488161 -0.0637867 -0.790332 -0.788729 1.11571 0.759145 
resto_tokyo_cheap_cantonese_5stars_address 0.334009 -0.959744 0.252942 -1.34652 -0.162748 0.760232 0.488223 -0.690683 -0.0698349 0.0641904 0.124945 -0.366166 -0.039088 -1.26545 0.6179 -0.609001 -0.328361 -0.90609 -0.0801774 -0.218404 -0.29213 0.550647 0.860077 -0.499714 -0.563563 0.589015 0.119463 -0.00561393 -1.04185 0.999882 -0.900797 -1.63991 1.02328 -0.117823 -0.0729756 -0.0452768 -0.212053 0.729847 0.492293 0.0232185 0.689874 -0.520432 0.570103 0.925199 1.34439 0.26481 0.185018 0.265954 -0.379409 0.279314 -0.597136 -0.40317 -0.208857 0.854701 -0.086112 0.862896 0.269655 0.903559 -0.531552 0.199013 -1.02689 0.930407 0.167367 0.239768 
resto_seoul_moderate_cantonese_8stars_address 0.566023 0.257369 -0.981266 0.153907 0.399806 0.694759 -0.429365 -0.29398 0.220965 0.562432 0.885039 0.466624 -0.603561 -0.377143 -1.20601 -0.663101 0.638408 0.624667 -0.915185 0.753809 -0.000479234 -0.379197 -0.442897 -0.0895528 -0.41891 1.05491 -0.64337 0.528149 -0.725937 -0.368639 0.682335 -1.29664 1.22359 0.47531 -0.107656 -0.187842 -0.520632 0.892762 -0.483401 -0.978623 0.400047 0.164646 0.653627 -0.705479 -0.398495 1.24942 -0.372705 0.0373208 0.491783 0.981564 -0.808699 -0.316435 -0.0429914 0.909721 0.866768 0.869217 0.878705 0.992884 0.780728 -0.24221 0.0485633 -0.210204 0.580096 0.283314 
resto_london_moderate_indian_8stars_address -0.798116 -0.620847 -0.977279 -0.972311 -0.947541 0.266806 -0.906434 0.7914 -0.406361 -0.718597 -0.767268 0.562361 0.814232 0.276763 -0.525006 0.0228073 -0.743683 -0.111928 -0.774815 0.308744 0.429753 0.0597809 0.569854 1.2117 0.805541 0.201719 -0.799896 0.348237 0.819493 -0.079766 0.327627 -0.425119 0.0386899 -0.102084 0.716788 0.1867 -0.455296 0.589685 0.474937 0.480808 0.724148 -1.23377 0.37273 -0.577201 -0.744218 0.499063 -0.655442 -0.508618 -0.191459 0.688485 -1.03569 0.256219 -0.0585301 -0.824508 1.31437 -0.543702 0.87224 1.39952 0.655137 -0.756629 -0.593469 0.583019 -0.556385 -0.241301 
resto_madrid_moderate_british_2stars_address -1.12635 -0.926509 -1.11486 -1.47167 -0.137998 0.833546 -0.588128 -0.829511 -1.17036 0.0490371 -0.742168 -0.634065 0.378436 -0.465094 -0.0435804 0.549529 0.605685 -0.0717189 -0.616723 0.781762 0.514678 0.344516 -0.288338 0.13847 -0.214868 -0.105879 0.0811949 0.832407 -0.0141182 0.114039 0.658255 -0.234158 0.747277 1.4838 -0.13261 0.860437 -0.34992 0.609162 0.700455 -0.292 -0.52388 0.151706 0.371787 0.605173 -0.282059 -0.22872 0.492689 -0.0212394 0.021012 -0.841137 0.0303722 -0.0924898 0.941812 -0.536617 1.79955 0.157025 0.097578 0.445065 1.14483 0.443863 0.295024 0.139035 -0.238084 0.216553 
resto_paris_expensive_french_3stars_address 0.107291 -0.197586 0.528978 0.0466834 -0.42631 0.483745 -0.318587 0.64846 -0.662001 -0.17971 0.3716 0.368342 0.506318 -1.50855 -1.04424 -0.214904 -0.542659 0.885388 0.182106 0.128598 0.686128 -1.11959 -0.676968 -0.366973 0.159278 0.446146 0.362584 0.34157 -0.410355 -0.533662 0.480502 -1.23859 0.941389 0.0473598 -0.457758 0.743608 0.167682 -0.0753742 -0.0386301 -0.636945 -0.201481 -0.203069 -0.235149 -0.265453 1.34631 -0.408367 1.07209 0.0267258 -0.0810013 -0.314474 0.211942 -0.0250215 0.219201 -0.52196 1.28 -0.317076 -0.113155 0.54244 -0.10222 -0.358401 0.0620725 0.442127 0.549494 -0.658576 
resto_hanoi_expensive_korean_7stars_phone -0.136082 0.0953784 0.517034 -1.24514 -0.179936 0.765985 0.0670425 0.0647862 0.174972 -0.62132 -0.627476 0.539577 -0.179977 -1.33509 -0.421466 0.959695 -0.200101 -0.996811 -1.0697 -0.574057 0.0734465 0.19209 -0.214669 0.363728 1.03604 -0.66523 -0.760389 1.11209 -0.649055 -0.544493 -0.79127 -0.0490782 0.163868 0.822859 -0.890391 0.510793 -0.0969423 0.41061 0.372577 0.112228 0.35668 0.624854 -0.170094 -0.360806 0.5566 1.1395 0.429576 0.395462 0.295005 0.862689 -0.370259 0.901427 -0.670101 -0.44898 0.844084 -0.0993262 -0.633125 0.665587 -0.526314 -0.216387 -0.00605858 0.286064 0.75955 0.870622 
resto_beijing_cheap_cantonese_7stars_phone -0.333166 0.479492 -0.324611 0.115808 0.463385 1.09867 -0.0420686 -0.517966 -0.758506 -0.505229 0.373752 0.439521 0.89675 -0.86838 -0.166793 0.883516 -0.349868 0.800923 0.4108 0.557638 1.04638 0.141563 0.579003 1.08684 0.84913 -0.535252 -0.796396 -0.229868 -0.192077 0.236341 -0.973207 -0.435149 0.0695511 0.663193 0.00556026 0.723732 0.594026 0.608157 -0.0705546 -0.243026 -0.701885 -0.259047 -0.783606 -0.853494 0.504866 -0.314969 0.637046 -0.730888 0.356374 0.549776 -0.94715 -0.0723474 0.257092 -0.373123 -0.765235 -0.327241 0.460676 -0.0393778 -0.381659 -1.04498 -0.325505 0.960379 0.214555 -0.663295 
sorry -0.467416 -0.160849 -0.943796 0.791713 -0.963916 0.218871 0.716411 -0.469702 -0.69072 -0.0104922 -0.0819249 0.799742 -0.135109 -0.951577 -1.0657 -0.648571 0.467748 0.427103 -0.241908 0.948469 0.79621 -1.24783 0.898187 -0.259776 0.953091 0.40173 -0.959468 -0.0386256 0.219567 0.948018 -1.07504 -1.13152 0.699714 1.62731 -0.362303 1.53696 0.43421 -0.345507 1.36374 0.732585 0.614007 -0.544243 1.12709 -0.674431 1.79739 0.199412 -0.294744 1.10074 0.293686 1.0513 -0.105482 0.736994 0.986149 -0.332098 1.26243 -0.606289 -0.963363 1.37257 0.637607 -0.867019 -1.0794 0.681106 0.646625 -0.822982 
resto_beijing_cheap_vietnamese_4stars -0.278386 -1.12186 -0.646128 0.208415 1.10616 0.279207 -0.186802 -0.242817 -0.421366 -0.587547 0.13508 0.295951 -0.240569 -1.84242 -0.615767 -0.720385 0.189451 -0.9387 -0.272454 -0.174652 1.02929 -1.32183 0.470963 -0.300499 1.01155 0.327406 -0.838481 0.508807 0.695419 0.532279 -0.605753 0.136449 -0.216631 0.117163 -0.38688 0.451581 -0.070765 0.741817 0.997191 -0.352832 0.230324 -0.349402 0.651226 0.635374 0.421317 0.921318 0.936105 0.542877 -1.17613 -1.16322 -0.220368 -0.743669 0.628833 0.417968 0.774898 -0.358279 -0.381826 -0.131119 0.20576 -0.99151 0.115405 -0.16553 -0.33434 0.477502 
resto_paris_expensive_spanish_2stars_phone 0.363945 0.452955 -0.319616 -0.761437 0.221989 0.93952 0.0881618 0.526983 0.445164 0.380352 0.529436 0.0243791 0.544617 -1.19228 -0.685206 -0.204394 -0.335422 -0.897238 -0.077858 0.199375 -0.210589 0.597737 0.0753007 0.643406 0.942501 0.537967 -0.0824837 0.771623 0.644263 0.364396 0.226788 -1.13276 1.27801 0.649057 -0.623075 1.42302 -0.343227 -0.952797 -0.18842 -0.728613 0.50014 0.451622 0.432537 0.769015 -0.274354 0.710491 0.926328 0.368294 0.247347 0.709079 0.571183 -0.146533 -0.364884 -0.879795 0.467378 -0.275124 1.07621 -0.106747 0.561192 0.142839 0.117094 -0.494519 0.456299 -0.413272 
resto_bombay_expensive_spanish_3stars_phone 0.849968 -0.55811 -0.947394 -1.11817 0.19554 -0.483705 -0.758573 -0.130076 -1.03372 -0.51374 -0.440142 -0.463395 -0.466371 -0.287508 -0.751953 0.376767 -0.0867594 0.321968 0.648983 0.535428 0.91733 0.223748 0.13978 0.874779 -0.688744 0.739166 -0.599949 0.847596 0.531829 -0.375566 0.0275998 -0.902505 0.972194 1.29478 0.443512 0.673435 0.16678 -0.0662052 -0.57925 -0.669696 -0.73796 -0.66288 -0.423813 -0.630243 0.467788 -0.49771 -0.810366 -0.155986 -0.28973 0.612673 -0.39374 0.756371 -0.473756 -0.855314 -0.469781 0.91241 -0.140373 1.24941 0.0301419 0.788433 -0.440447 0.789278 -0.59357 -0.185865 
resto_rome_expensive_spanish_6stars_phone 0.422695 0.368639 -0.903784 0.179797 -0.746342 1.24906 -0.885164 -0.703638 0.123212 -0.406305 0.857211 -0.177066 0.0100894 -1.16619 -0.763436 0.366169 -0.742792 -0.260227 -0.976391 1.08826 -0.590464 0.180155 0.698208 0.557764 0.459488 0.727235 -0.332079 -0.461262 -0.778066 1.12656 0.30994 -0.700674 0.591427 0.270087 1.11506 0.337034 0.346823 -0.172443 0.435712 0.744021 -0.280148 -0.947271 -0.514823 1.26082 1.27744 -0.338566 1.15671 -0.19836 0.166236 0.307445 -0.22136 0.982451 -0.349971 0.231037 0.235706 -0.403655 0.194228 -0.324601 -0.489368 0.3005 -0.633703 0.285636 0.946051 -0.407806 
resto_rome_moderate_italian_6stars_address 0.440805 -0.461088 -0.614178 0.454882 -0.665116 1.18568 -1.17347 -0.986774 -0.727205 0.703237 -0.323866 -0.311774 0.601843 -0.855236 0.254599 -0.48493 0.265204 -0.541988 0.157392 -0.436507 -0.00219677 -0.137442 -0.117571 1.11923 1.01193 0.27647 -0.715262 0.271606 -0.619857 0.341737 -1.00691 -1.20556 0.607446 -0.39292 -0.0960885 -0.126965 0.486798 0.24028 0.687839 -0.776931 0.0352653 -0.208576 -0.047509 0.330629 0.766837 0.431877 -0.00686328 0.690138 -0.503229 -0.208401 -1.0461 -0.905958 0.605498 -0.936872 0.0857006 0.166301 -0.580304 0.633112 -0.678137 -0.853204 -0.832067 -0.695904 0.305887 0.166434 
resto_tokyo_moderate_japanese_1stars_phone 0.383336 -0.03884 0.316632 -1.20183 0.301755 0.166355 0.624552 -0.317765 -1.30409 -0.0957767 -0.604759 1.09804 -0.382168 -0.845002 -0.0687552 -0.745781 0.0361737 -0.669027 -0.325801 -0.255572 0.306511 0.400365 -0.354475 0.637423 -0.556769 -0.635781 -0.931517 0.528338 -1.0746 -0.637276 -0.0862159 -0.757901 1.12547 0.998833 -0.194695 1.09799 -0.318062 -0.396567 0.831674 -0.839131 -0.928497 0.147767 -0.503239 -0.237298 0.490531 0.517212 -0.672984 -0.660533 -0.970791 -0.314923 -0.508655 0.566583 0.0439148 -0.468246 0.117407 -0.464608 -0.199792 1.00219 -0.452147 -0.948676 0.182198 0.141566 0.0684453 0.186048 
resto_hanoi_moderate_japanese_2stars -0.979026 -1.69519 -1.10001 -2.15123 -0.217308 2.48484 -0.994583 -0.533468 -2.20433 -0.515087 1.5733 0.879607 1.14834 -3.58372 -1.51589 -0.657397 -1.06702 -0.0657522 -0.917891 1.03691 0.738916 -0.694286 0.357671 1.75782 1.70359 -0.29638 -1.74443 1.48312 -1.15275 0.203504 -1.04428 -2.74015 2.20828 3.28086 0.0269664 1.72209 -1.98624 0.258393 1.00314 -1.39887 -0.148819 -0.209673 1.28815 1.92264 1.64925 0.984476 1.1483 1.07362 -0.236847 0.592558 -0.576486 1.07383 -0.437435 0.0389523 1.11627 1.72763 0.238815 2.44099 0.0743256 -0.705996 -1.6709 1.82098 1.65324 0.192098 
resto_rome_cheap_british_3stars_phone 0.837756 -0.621665 -1.16957 -1.29212 -0.337233 0.691632 0.71541 -0.688957 0.0864845 0.507776 0.0948278 0.441619 -0.0740134 -0.511374 -0.311254 0.434731 0.717744 -0.786201 0.30374 0.432893 0.110823 -1.12987 0.885577 0.313541 -0.308506 0.278086 0.328933 -0.442858 -0.680924 0.809185 -0.301899 -0.260657 -0.146334 1.37174 0.273876 -0.475827 -0.696862 0.164801 0.936925 -0.603729 -0.253172 -0.572029 -0.442736 -0.726182 0.506525 0.807693 0.602614 -0.13856 -0.768246 0.403906 0.166531 0.245737 0.46004 -0.200713 1.24152 -0.00427366 -0.435213 0.499443 -0.113183 -0.460969 -1.10435 -0.321865 -0.0711407 0.818463 
resto_hanoi_moderate_cantonese_5stars -0.820953 -1.16216 -1.22425 -1.35057 0.661777 1.36011 -1.39081 -1.26122 -0.763704 -1.455 -0.150673 0.589059 0.869608 -1.32795 0.157555 0.543935 -1.4738 -0.774993 -0.991188 0.9282 -0.27933 -1.58479 0.370871 1.34727 0.481945 0.550582 -0.139235 1.95395 -0.347106 1.00846 -1.44909 -1.66372 0.0779721 1.23016 0.52493 0.10249 -1.66806 -0.452188 0.761366 0.676563 -1.20626 -0.70286 0.57053 1.82094 0.918992 0.534809 1.23703 0.822678 0.100513 -0.926078 0.124196 1.29847 -0.162409 0.60994 1.13695 0.560557 -0.379003 1.31817 -0.521895 -0.066488 -1.60204 -0.000719104 1.36597 0.127326 
resto_madrid_cheap_italian_3stars_address 0.015639 0.667969 -0.855448 -0.408585 -0.0432544 0.37429 -1.28187 0.915481 0.230096 0.4137 -0.387336 -0.698283 -0.019264 -0.605905 -0.0960899 0.679851 0.691684 0.738898 0.860504 0.457681 0.116427 -0.658124 -0.407079 0.800323 0.512278 -0.620001 -0.679789 0.497144 0.422713 0.958629 0.632556 -1.03455 0.735171 1.12315 -0.0718299 0.992252 -0.824684 0.699593 1.06543 0.588919 -0.411688 -0.73099 0.959395 -0.848887 -0.454297 0.696693 0.680422 0.63257 -0.689493 0.597688 -0.64639 0.227919 0.20539 0.441061 -0.122452 0.261327 0.891945 0.392896 0.563203 -1.04314 -0.818484 0.70898 -0.648443 0.669916 
resto_hanoi_cheap_cantonese_7stars_address -0.446815 -0.379257 -1.07834 0.0343802 -0.759714 0.0231319 0.136338 -0.453215 0.409603 0.16521 -0.323477 0.560972 0.532798 -0.933832 -1.06614 -0.657364 -0.354222 0.792869 0.612596 0.102588 -0.275345 0.790754 0.680688 1.01385 0.0595367 -0.300213 -0.586591 -0.398799 -0.672472 0.761898 -0.817119 -1.10979 0.80923 0.200092 0.277129 1.18244 0.335027 0.16036 0.587534 -0.523133 0.06228 -0.237259 0.23528 0.219289 0.66302 -0.632116 0.322383 -0.264978 0.356885 0.0153408 -0.361846 0.727766 0.704528 -0.680175 1.01551 0.0848601 -0.847688 0.0561132 0.866427 -0.621639 -0.132244 1.31714 -0.429379 -0.119491 
resto_seoul_cheap_vietnamese_4stars 0.0226815 -1.31387 -0.0771571 -0.148679 0.425969 -0.422916 -1.40212 0.154132 -0.187831 0.289007 1.35544 0.84009 -0.0538903 -1.52814 0.264668 -0.445274 0.200262 0.35565 -0.708526 1.09067 0.626345 -0.112393 0.865478 0.285994 0.731025 0.62495 0.0757298 1.55116 -0.165428 -0.304722 -0.576846 -0.662401 -0.25866 0.235358 -0.188262 0.897133 0.143259 0.523837 0.573227 1.08321 -0.753487 -0.905176 0.843023 -0.178813 0.131518 1.05257 0.491761 0.0359283 -1.14946 0.499048 -0.556909 0.0229691 -0.702435 -0.378051 0.382486 -0.450797 -0.513976 0.10432 -0.263001 0.110414 -0.291629 0.54354 0.214866 -0.394183 
every 0.442283 0.263071 -1.1222 -1.05946 0.246152 0.840643 0.390624 0.575058 -0.417838 -0.8466 -0.403806 0.445348 0.0188352 -1.16248 0.645505 -0.809103 -0.913834 0.241559 -0.657544 0.354706 0.76733 0.3141 -0.347598 0.217734 0.175942 0.788963 -0.245812 -0.0191057 -0.968828 0.603056 -0.577192 -0.0379737 -0.75187 0.667323 0.563585 -0.36976 0.22547 -0.113858 0.095044 0.831228 0.535664 -0.856162 0.503221 0.583625 0.434336 -0.77608 0.770961 -0.687277 -0.486317 0.234883 -0.804542 -0.631601 0.965015 -0.519737 -0.25028 -0.381265 -0.940389 0.158911 0.579789 -1.05401 0.165933 -0.000997853 0.31668 0.216863 
resto_bangkok_expensive_thai_5stars_phone -0.184944 -0.00358697 -0.793365 0.304685 -0.337866 1.29116 -0.678026 -1.03442 0.299755 -0.419842 0.931095 0.764915 0.959872 -0.0736265 0.378815 1.06222 -1.00588 -0.459725 -0.894926 0.467972 -0.695875 -0.261229 1.06601 0.276116 -0.578649 0.595631 0.468033 1.07921 -0.281152 0.281759 -0.39791 -0.106319 0.274021 0.550716 -0.0226502 0.235721 0.334363 -0.498433 0.326664 0.562038 0.821064 0.221207 -0.108363 0.172775 0.449525 0.097544 1.17448 0.558281 0.198827 -0.733089 0.274289 0.714466 1.12437 0.499287 0.904192 1.03251 0.818727 0.0529392 -0.124144 0.0400141 -0.846932 -0.590736 0.473372 -0.648182 
resto_london_cheap_indian_6stars_phone 0.467895 -0.494848 0.230108 0.435163 0.552813 1.24278 -0.0163785 -0.37795 0.360938 -0.417645 -0.697755 -0.61233 -0.0165719 0.0854877 0.258102 0.487364 0.33645 0.781365 -0.158876 0.792165 0.514341 0.251033 0.996373 0.632468 -0.530219 0.0416758 0.352054 1.41549 0.158624 0.13452 0.419345 -1.16136 1.14202 0.865148 -0.889549 1.1138 -0.707934 0.047702 0.953357 -0.217683 -0.0378975 -0.210386 0.433244 0.287936 0.561391 0.437008 0.336005 0.580198 -0.311065 0.308555 0.173731 0.276632 0.71205 0.101789 0.364212 0.768681 -0.0189496 0.32548 0.610889 0.199621 -0.424287 -0.581279 -0.454038 -0.983651 
shanghai_family_restaurant_address -0.238361 -0.554752 0.215205 -0.120215 -0.860432 0.349103 -0.0976327 -0.700987 0.426885 -0.0495538 0.550133 -0.212009 0.747141 -1.54806 0.18459 0.556778 -0.199869 -0.528739 0.100963 0.661058 -0.365022 0.670242 0.503621 1.30697 1.00518 -0.606801 -0.991706 0.168481 -0.159221 0.486315 0.529649 0.144177 -0.293265 0.959563 0.000198737 0.484085 -0.101793 -0.371326 1.36496 -0.134077 -0.706148 0.672504 0.0105322 0.839478 0.439808 -0.235341 1.23067 -0.193521 0.210736 0.340357 -0.341656 -0.584687 0.241871 0.93624 -0.227537 -0.612595 -0.200169 1.802 1.14234 0.0864469 -1.19573 -0.120755 0.494881 -0.46294 
resto_tokyo_cheap_japanese_6stars_phone -0.279425 -1.27896 -0.21075 -1.22009 -1.00503 0.254966 -0.00576693 0.128766 -0.941994 -0.0452395 0.0459744 0.703642 0.0589571 -0.702366 -0.105075 -0.680294 -0.22341 0.355125 0.699203 0.977002 -0.545354 0.401658 0.790748 0.0509993 -0.361728 0.228066 -0.297706 0.17718 -0.927771 1.00838 -0.0185411 -0.159808 0.111048 -0.00993893 -0.61548 0.761154 -0.43109 0.0603209 0.841794 0.146 -0.299849 -0.27075 0.536135 -0.357544 0.646227 0.629951 0.415982 0.378608 0.784597 0.410354 -0.421286 -0.0577403 0.70391 0.499011 -0.305254 1.2633 0.690311 0.704708 0.749021 0.0810856 -1.01577 -0.275697 -0.0364611 0.261509 
resto_tokyo_expensive_cantonese_2stars_address -0.0818032 -0.455776 -0.946001 -0.215914 -0.512464 -0.409155 -0.100675 -1.05232 0.713702 0.261906 1.10854 0.785628 1.02172 -0.0197166 -0.834434 -0.474078 -0.358231 0.394002 -0.755582 0.881635 0.888241 -0.844497 -0.122016 1.01689 -0.148021 -0.614326 -0.676815 -0.295448 0.257506 0.309015 0.171199 -1.02864 0.137769 -0.288181 -0.311117 0.773334 -1.07235 -0.818244 -0.462838 0.295249 0.708117 -0.490334 0.63624 -0.564366 0.400743 -0.225267 -0.65442 -0.431232 0.185107 -0.835602 0.437072 0.804914 -0.057089 0.96764 0.075532 0.635084 -0.627994 1.29421 0.401386 -0.0993937 -0.509984 -0.0199768 0.283879 0.223541 
resto_seoul_moderate_cantonese_5stars -0.804797 -0.263272 -0.650246 -1.31281 -0.251394 0.795787 0.142375 0.00417707 -0.696867 -1.1715 0.417607 0.407907 1.11913 -0.71789 0.325867 0.0243844 -0.653401 0.0674882 0.250518 -0.37569 -0.0363729 0.533829 0.991112 1.50378 -0.529752 0.443629 -0.114326 1.4247 0.56167 -0.433291 0.437195 -1.25023 0.146583 0.722088 -0.337214 0.350433 0.239203 0.145229 0.364579 0.460495 -0.922504 -0.337034 -0.222961 0.400617 1.06241 0.192814 0.085716 -0.956007 0.322931 -1.20404 -0.159638 0.655281 -0.355722 0.410619 -0.324486 0.00725153 -0.530617 0.178686 0.0103698 0.417702 -0.377554 0.972141 -0.337065 0.431628 
resto_bangkok_moderate_thai_1stars_address -0.17206 -0.339864 -1.14878 0.343811 -0.56647 0.463494 0.0392129 0.184455 -1.13426 -0.709155 -0.45049 0.538381 -0.406442 -0.873917 -0.611638 -0.58637 -0.760372 0.353578 0.666242 0.740297 0.130079 -0.578527 0.365464 0.706255 0.342183 -0.727843 -0.416314 0.884018 0.616886 0.024624 -0.423658 -0.784118 0.729549 -0.120289 0.677961 0.760167 -0.592537 0.60316 0.453165 0.445639 -0.129099 0.380503 -0.216466 1.05675 -0.301861 0.542794 1.29172 0.283005 0.628202 -0.0143046 0.0138427 0.580217 1.1478 -0.606136 0.0018438 0.311307 -0.553615 0.195632 0.224049 0.195742 0.175085 0.554227 0.286838 -0.512259 
cotto_address -0.682911 -0.971394 -0.610204 -0.799639 -0.361133 1.13738 -0.994335 -0.188775 -0.35985 -0.242787 0.658679 0.818948 -0.331426 0.0885205 -0.424714 -0.546728 -0.42098 -0.0201761 0.89484 1.1163 0.856319 0.709725 0.570903 1.76293 0.228123 0.16974 0.0244988 0.735746 0.0623333 1.16123 0.386301 -0.0494416 0.31552 1.33599 -0.974793 0.398164 0.0687128 -0.650255 -0.326511 -0.217655 0.327108 0.367567 -0.019539 -0.532925 0.410241 -0.53635 0.356798 -0.669477 -1.11322 0.441179 -0.292291 -0.450377 0.0687434 0.0011902 1.39304 0.0532763 0.325167 1.25187 0.589335 -0.401348 0.18492 0.204487 0.952223 -1.0992 
resto_seoul_moderate_cantonese_4stars -0.209645 -0.348348 -2.26555 -0.323223 0.194547 1.90319 -1.53138 0.108823 -1.29283 -1.66995 1.34087 -0.00919842 0.066022 -2.839 -0.483373 -0.0459713 0.00152178 -0.536662 -0.687995 1.24009 0.448164 -1.37104 1.30995 1.47522 0.440643 0.86507 -1.81675 2.26528 0.432949 -0.370237 -1.42484 -2.09989 0.797487 2.11718 -0.132609 1.79062 -1.63746 0.933854 0.572175 0.477823 -1.47793 -1.21732 0.648264 1.29505 1.36068 0.788965 0.331394 0.775378 -0.503106 -0.695969 -0.511269 0.742331 -0.463585 -0.792518 1.71552 0.150121 0.164823 1.51614 0.20613 -0.895811 -0.826936 0.40689 -0.136375 -0.28514 
resto_bombay_cheap_french_2stars_phone 0.344522 -0.72042 -0.319097 -1.05474 -0.753083 1.23797 -0.0664928 -1.05638 -0.525436 -0.202216 0.152282 -0.071522 0.0401302 -1.54252 -0.533522 -0.642553 0.819052 0.261498 -0.239925 0.747709 -0.135188 -0.0337918 1.60722 0.507756 -0.175856 0.0206072 -0.667619 0.345376 -0.916801 -0.207302 -0.573667 -1.32552 -0.703219 0.501592 -0.735029 0.290004 0.184642 0.840535 0.0611157 0.54987 0.360515 -0.122605 -0.695264 -0.714203 -0.0208031 0.660224 0.963979 0.781212 0.803884 0.323923 0.261802 0.669082 0.525503 -0.386871 1.01198 0.719898 1.19806 0.865466 -0.343653 -0.375235 0.116067 0.386062 -0.675342 1.02812 
resto_seoul_cheap_korean_6stars -0.935627 -1.35444 -1.95868 -0.153759 -0.282014 0.196536 -1.49105 0.237343 -0.738785 -0.337676 1.82642 0.99067 0.123667 -2.72471 -0.341247 -0.325759 -1.19878 -0.53957 -0.0997876 0.797151 -0.0535721 -1.12508 0.3778 1.70642 1.66598 -0.570463 -0.627853 1.50584 -0.788613 1.02928 -0.631175 -2.02305 0.258863 1.23019 0.920096 1.74998 -1.38041 0.277852 0.847214 -0.481605 0.0648352 0.0567903 0.443447 0.406644 1.29781 1.64182 1.0741 -0.265869 0.191152 -0.070813 -1.1586 1.08313 0.09886 0.627196 0.691576 1.96526 1.09247 1.01169 -0.468152 -1.29748 -0.0398003 0.0848498 0.67854 0.532305 
resto_tokyo_cheap_thai_4stars_address 0.34234 -0.117546 -1.1429 -0.768299 -0.523825 0.131093 -0.0472774 0.18689 0.282898 -0.687861 1.00002 0.232835 0.827332 -0.760774 -0.0330536 0.518719 0.291578 0.0647021 -0.662204 0.73135 0.89645 -0.583407 0.684459 0.626326 -0.80689 0.825081 -0.249066 0.934128 0.122901 -0.908562 0.708772 0.214779 0.837415 0.964036 -0.134348 0.828092 0.557302 0.108509 -0.362354 0.342315 0.42618 -0.547405 0.668994 -0.170829 -0.645012 0.0077656 0.453002 -0.138505 0.361722 -0.690605 -0.47359 -0.42099 -0.372063 0.410719 0.644892 0.525293 0.499525 0.164232 0.0506479 -0.810655 0.411919 0.0964128 1.16923 0.866981 
chiquito_restaurant_bar_post_code -0.198235 -0.30997 -1.11281 -0.692791 -0.767267 -0.0641467 0.0393402 -1.30279 -1.62883 -0.71466 -0.660639 -0.0716981 0.476974 -0.476967 -1.60449 0.114858 0.0239239 0.727821 -0.365918 0.267557 0.199463 0.0227377 1.00105 -0.0104214 -0.309278 0.32074 -0.781972 0.487228 -0.307015 -0.413785 0.624456 -0.988641 -0.0615133 0.735192 -0.372555 -0.805632 -0.424624 -0.97958 0.652295 -0.255245 -0.380513 -0.128947 -0.431303 0.18963 0.904738 -0.188821 0.309658 -0.330763 0.342933 -0.911117 -0.646344 0.894067 0.649359 -0.259263 1.16407 0.222401 0.691015 1.18016 0.925953 -0.246872 0.657246 0.341989 0.799402 -0.935519 
resto_london_moderate_british_3stars -1.04464 0.0222707 -0.880787 0.106058 -0.0990431 0.476134 -0.705125 -0.133692 0.56902 0.50783 -0.312714 0.585377 1.22492 -1.36327 -0.306457 1.00415 -0.0882987 -1.14716 0.0847344 0.502088 -0.261876 -1.32433 0.868595 -0.111389 -0.317059 0.377572 -1.34859 0.338759 0.0465666 0.4523 0.336515 -1.7394 -0.551522 1.06414 -0.884227 -0.95587 -1.23345 -0.780288 0.677565 -0.655891 -1.0977 0.711917 0.654055 1.41083 0.739419 1.55773 0.127773 0.23695 -0.406048 -0.294801 -1.78873 -0.0441808 -0.388302 0.226631 1.21433 1.35433 0.376173 1.25052 0.194593 -0.17099 -0.61739 0.076201 -0.60493 0.261292 
venue 0.0378965 -0.139672 -1.347 -0.348075 0.538608 -0.25016 -1.23537 -0.315917 0.104474 0.327489 0.26323 0.421685 -0.35149 -1.25205 -0.354232 -0.876062 -0.903946 -0.313367 -0.777456 -0.810425 0.563315 -0.934156 -0.438776 1.02348 0.561858 -0.575787 -0.297786 1.17523 -0.355151 0.163916 0.590456 -0.72735 -0.242193 0.18022 -0.484419 1.60399 -0.238947 0.343545 -0.0705174 0.260831 0.112166 -1.1433 0.161583 0.111781 -0.346654 -0.775584 1.30088 0.594173 0.750426 -0.0212296 0.0471746 -0.581028 0.452505 -1.29679 0.858402 1.1445 -0.550182 0.421974 0.470714 -1.50099 0.0794918 0.602417 1.12775 1.21093 
resto_hanoi_expensive_korean_4stars_phone -0.869356 -0.100575 -0.81382 0.0802652 -0.0422049 0.862778 0.698769 -0.312735 -0.869647 -1.16678 -0.402224 -0.31414 0.349057 -0.372861 -1.16125 0.362752 -0.173351 -0.156083 -1.02539 -0.245484 -0.484658 0.571152 0.284529 0.131102 0.708408 0.704078 0.0521793 0.243934 -0.0654557 -0.0830098 0.185339 -1.48695 0.998228 -0.148397 0.738994 0.299936 -0.382803 -0.893218 -0.437882 -0.484677 0.14701 -0.743674 0.0781661 0.0719383 0.0342406 0.297315 1.09443 -0.587839 -0.545599 0.722156 -0.530611 -0.843261 0.460704 -0.98046 0.615014 0.389972 -0.0104706 0.902141 0.17378 -0.652235 0.319632 -0.446244 -0.480535 -0.0325845 
resataurant 0.326332 -1.1387 -0.609829 0.532071 -0.925829 0.223679 -0.927571 -0.104621 0.536979 -0.530919 0.483513 0.893361 0.583378 -0.682754 0.345334 -0.863751 -1.09793 0.191915 0.205985 -0.500784 0.568183 -0.71104 -0.738491 -0.259027 -0.654104 0.171086 0.275118 -0.0766562 -0.303208 0.0485078 -0.59622 0.078127 0.167807 1.29103 0.856913 0.960928 -1.16998 0.767172 1.21015 0.778854 -0.542299 0.15727 -0.228793 0.23963 -0.578167 0.473494 0.872267 0.0130279 -0.545474 -0.0511612 -0.234332 -0.214184 0.701756 -0.854492 -0.425553 0.694165 0.596677 -0.326251 0.593648 -0.856804 -0.795943 0.225884 -0.12232 0.66328 
pizza_express 0.170734 -1.20427 -0.280836 0.852535 -0.159503 1.04204 -0.788439 -1.14507 -0.41793 -0.741201 1.05997 0.389588 1.10929 -0.814188 -1.2926 -0.163094 -0.192456 -0.945615 0.61653 0.409891 0.630445 -1.00152 -0.29213 -0.248671 0.0758815 0.0602721 -1.13297 -0.706383 -0.790503 -0.274317 -0.527632 0.0874607 -0.332601 0.911147 -0.342179 0.602803 0.319493 0.641284 0.480563 0.720337 0.39434 0.131112 -0.18112 1.11034 -0.449304 0.0255659 1.11668 -0.0057122 -0.799405 -0.635131 -0.558282 -0.784222 1.05325 -0.470211 0.690167 0.72145 0.614542 0.842507 0.0479255 -0.87465 0.118898 0.406559 0.912881 0.839954 
resto_hanoi_moderate_vietnamese_7stars_address 0.208609 0.662982 -0.462678 -0.407519 -0.0371978 0.76492 -0.367143 -0.335774 -0.994177 -0.837536 -0.725819 0.340453 -0.294119 -0.825378 -0.946594 0.986382 -0.882784 -0.88362 0.228099 -0.556188 -0.735282 -0.159162 0.893686 0.181181 0.912046 -0.6732 -1.08996 -0.234672 -0.0250108 -0.952046 0.432955 -0.208897 0.804761 0.14086 0.176087 0.800585 -0.223845 -0.332743 1.05556 0.146279 -0.2623 0.677324 0.0905295 -0.0204069 1.23596 1.17238 0.645364 0.117047 0.706451 -0.434168 0.428599 -0.571677 0.616367 0.464014 0.624514 -0.794595 -0.217362 1.32167 0.714715 -0.352359 -0.595843 1.01032 0.274414 0.99169 
resto_tokyo_moderate_cantonese_1stars_address 0.282265 -1.22201 -0.378152 0.309235 0.642921 0.644864 0.430739 -0.769451 -0.240445 0.0471587 -0.459456 0.389203 0.122737 -0.976056 0.328701 -0.325688 -0.90318 -0.788991 0.374908 -0.278317 0.609536 0.488327 0.685571 0.849413 0.880191 -0.88019 -0.836822 0.615214 0.683757 -0.848788 -0.89104 -0.910399 -0.674617 0.318224 0.561508 0.43554 -0.162773 -0.415509 0.934254 -0.555378 0.122307 0.671619 1.16205 0.679012 0.745941 -0.505603 -0.156078 1.01816 -0.415288 0.715589 0.28238 0.100381 0.980851 0.374838 1.3374 -0.361506 0.725541 0.382326 0.192158 0.202387 -0.867806 -0.459966 -0.396714 -0.729622 
resto_bangkok_cheap_thai_3stars_phone -0.993034 -0.332296 0.0381456 -0.304413 -0.505432 0.318177 -1.1303 -0.991631 -1.20982 -1.01231 -0.150295 0.00570307 0.23169 -0.301167 -0.912911 0.330883 -1.00747 0.244749 -0.94372 1.20441 -0.5396 -0.752134 -0.318238 -0.478184 0.206477 0.329902 -0.540331 1.32984 -1.08601 0.418795 -0.714331 -0.54555 0.235829 0.535154 0.0931082 0.496278 -0.18371 -0.570037 0.325889 -1.07607 -0.305047 0.559714 0.533966 0.961468 -0.444577 -0.0608423 -0.0732816 0.413367 -0.662469 -0.246539 -0.720406 0.00742111 -0.604033 0.627686 -0.338214 -0.418835 0.870604 1.36282 0.60315 -0.827223 0.646192 -0.236467 -0.612587 -0.676222 
resto_rome_moderate_italian_2stars_phone -0.464107 -0.857415 0.131384 -0.781329 -1.18196 0.46151 0.450778 -0.768736 -0.193755 -0.493998 1.05778 0.255416 0.902058 0.139984 -1.3889 0.417302 -0.0612965 -0.940226 -0.537633 0.570018 -0.458053 -1.11277 0.990098 -0.389779 0.332706 0.868948 0.378912 -0.300931 -0.160092 0.415956 -0.200361 -1.3333 0.333068 1.3773 -0.241484 1.29571 0.573251 -0.779958 0.868915 -1.04631 0.717117 -0.505272 0.551831 0.451434 1.08369 -0.162989 0.705658 0.424271 -0.223103 -0.709696 0.0914283 -0.427084 0.103637 -0.510257 0.131467 0.709163 -0.214795 1.04115 0.0198393 -0.627883 -0.21847 -0.491054 -0.399176 0.624427 
stazione_restaurant_and_coffee_bar_address 0.319668 0.471131 0.769705 -0.045844 -0.0330933 0.99092 -0.544954 -0.0433116 0.46919 -0.779899 -0.304704 -0.539461 0.473652 -1.6448 -0.678289 0.0843141 -1.11898 -0.336489 -0.413674 0.765704 -0.644208 0.579489 0.134568 -0.440441 0.750444 -0.359996 -0.918904 -0.276046 -0.0222563 0.444081 -0.99265 -1.1507 0.46564 1.43879 -0.458447 1.21504 -0.534844 -0.162083 0.454548 0.698665 0.261922 0.00987935 0.365518 -0.417998 0.646609 -0.432488 0.497411 -0.561299 -0.014625 -0.92874 -1.17599 0.348322 0.409269 0.566211 1.23922 0.181648 0.319432 -0.0820853 0.28884 -0.786947 -1.20049 0.356843 0.208228 -0.0999692 
resto_beijing_moderate_thai_4stars_phone -0.329703 0.349699 -1.06861 -0.0179318 0.0176469 0.546773 -0.777158 -0.502836 0.233809 0.648968 -0.400831 -0.731399 0.0406918 -0.589911 -0.0354899 0.626354 -0.099469 0.930804 -0.892966 0.698585 -0.855597 -0.86404 0.882191 1.25099 -0.338638 0.021687 0.0320872 -0.285624 0.023319 0.674943 -0.129246 -1.26531 0.675893 0.335178 -0.413083 -0.487956 0.782062 0.402563 0.575175 -0.797398 -0.0453202 -0.215026 0.702809 0.486822 0.823211 -0.319131 0.459132 -0.318919 -0.0885242 -0.503299 -0.119061 -0.179956 0.363807 -0.408304 0.0442824 0.28993 -0.660186 0.761661 0.655018 -0.840664 -0.267419 0.321423 0.352668 0.323011 
resto_bombay_moderate_spanish_4stars -0.46685 -0.329932 -1.94172 -1.38405 -0.684487 1.77881 -1.20996 -0.991697 -1.20644 -1.38615 0.373156 0.642067 0.271418 -2.23632 -0.0613303 -0.133402 -0.149636 -1.09732 -1.03581 2.03169 0.670259 -0.179015 0.147405 0.4899 0.447018 -0.706101 -1.79416 1.62767 0.204701 1.1673 -0.686332 -2.37593 0.518452 1.79097 0.798408 0.591864 -0.208102 -0.201728 0.332895 -0.115958 -1.05529 -0.956389 -0.294775 0.594075 0.430504 1.61387 1.42417 0.270869 0.319962 -0.975141 -1.48839 -0.149472 -0.107369 -0.164128 0.760253 0.441218 0.474942 1.85865 0.58272 -0.940799 -1.84525 -0.027882 0.85738 -0.51235 
resto_seoul_expensive_vietnamese_4stars 0.282615 0.0976202 -0.966997 -0.0271483 -0.808746 0.520484 0.00558277 -0.627521 -0.657827 0.386638 0.418205 1.0674 1.54537 -2.34707 -1.59882 1.03124 -1.18751 -0.890959 -0.858864 1.32125 0.458616 -1.79722 0.139901 1.51328 1.34895 -0.24228 -0.715599 1.4509 -0.0377156 -0.207889 0.135857 -2.17013 -0.226657 1.76524 -0.248092 0.264926 -1.03544 0.0121815 0.668638 -0.0601058 -1.58757 -1.61872 1.42142 1.07498 2.15644 0.93551 0.423529 -0.211931 -0.839499 0.701856 -0.994669 0.912248 -0.216125 0.293861 0.139019 1.5836 -0.701847 0.92292 0.196539 -1.47762 0.483935 1.09308 0.834789 0.122893 
addrss 0.665844 -0.305662 0.261931 0.0433045 0.461762 1.07591 -0.177509 0.584223 -0.903137 -0.734795 1.19245 -0.389159 0.44659 0.00804719 -0.11226 -0.296707 0.632006 -0.0696151 -0.672013 -0.371014 0.124006 -0.85464 0.563813 -0.0245901 -0.109746 0.911045 -1.29699 -0.269656 0.485141 -0.740423 -0.0457679 -0.449874 -0.296165 -0.165308 -0.448396 -0.398147 -0.127459 -0.335133 0.314328 -0.135608 -0.329179 -0.804586 -0.499096 1.2162 0.645443 0.569328 0.906475 -0.671111 0.2229 0.0492306 0.0244975 -0.308166 -0.532467 0.140192 1.04178 0.489442 -0.693941 -0.112069 -0.268861 -0.172316 -0.197407 -0.366035 1.06077 -0.925175 
resto_bangkok_moderate_japanese_1stars 0.167421 -0.6205 -0.196098 0.354734 0.641468 0.633491 -0.483945 -0.0490103 -0.0500308 -0.304658 0.162013 1.1889 0.0555668 -1.41168 -0.581585 0.354599 0.204068 0.127839 -0.721042 1.45522 -0.527056 -1.27491 -0.66679 0.518391 0.133997 -0.0661391 0.0818789 0.064347 0.158419 -0.112844 -0.887558 -0.756496 0.175292 0.368272 0.851363 0.672357 0.590036 0.849103 0.656141 -0.781343 -0.185456 0.658065 -0.278232 -0.348882 0.037809 0.0280527 -0.199279 0.773647 0.629516 -0.488293 0.266524 0.934828 1.20589 0.159485 1.12369 0.081783 -0.46189 1.39637 -0.251931 -0.868802 -0.309166 0.781593 -0.242362 -0.259417 
resto_hanoi_expensive_japanese_8stars 0.49897 -1.12876 -1.69719 0.227185 -0.228451 1.3269 -0.064657 -1.08843 0.229758 0.37412 1.36188 0.413695 0.508827 -1.02373 -1.75344 0.849529 0.541562 -0.549274 0.673234 -0.369897 1.1124 -1.662 1.28518 1.03615 0.912461 0.484553 -1.53392 0.595394 0.422225 -0.360414 0.0467168 -0.674301 -0.136455 0.154298 -0.146544 1.27415 -0.716964 0.611656 0.105537 0.464904 -0.482937 0.334583 0.276741 1.43249 0.854951 0.215624 1.38433 -0.587248 -0.287108 0.585592 -1.28408 -0.134978 1.23022 0.166762 0.976786 1.45226 -0.0235611 1.80405 0.924663 -0.241729 -0.800074 0.993308 0.165403 0.661564 
resto_beijing_cheap_korean_7stars_phone -1.0009 0.155822 -1.15543 -0.80194 -0.522621 0.327529 -1.01051 -1.05688 -0.285776 0.0309218 1.11956 0.40508 -0.408775 -1.43151 -0.39643 0.344587 -1.0268 0.443303 -0.233328 0.466022 -0.505256 0.528023 0.395816 -0.443474 -0.557336 0.695133 0.580159 0.0657902 0.78768 0.926675 -0.844158 -0.720048 0.28185 0.592237 -0.252481 0.14268 0.609001 -0.369796 -0.841718 -0.0330368 0.353593 -0.431925 -0.206984 0.127769 0.465164 -0.509353 -0.411157 0.764896 0.781942 -0.774295 -0.351207 0.726711 0.22257 0.79312 0.232556 -0.522826 0.983864 1.39631 -0.887814 -0.497674 -0.113095 -0.388401 0.61481 0.675172 
japanese -0.306684 -0.0275595 -1.17661 0.485223 0.258908 -0.0280917 -0.74231 -0.611558 -0.0480389 -0.749727 0.791107 1.06023 1.13315 -0.615795 1.24907 -0.673946 -1.01602 -0.0935687 0.695945 -0.377627 -0.92894 -0.487383 0.0631167 0.655871 0.542935 0.614225 -0.100138 1.11992 -0.0341761 0.123658 0.338187 -1.96243 1.03023 0.0239909 0.207704 0.205737 -1.14798 0.290087 0.34098 -1.37202 -0.3494 -1.2842 -0.193558 0.961412 0.18436 -0.00326864 1.29193 -0.236858 0.560354 -0.121794 -1.29282 -0.641571 1.0963 0.817816 -0.0853243 -0.404165 -0.811583 0.105835 0.350954 -0.671224 -0.373638 -0.413255 1.07837 -0.688593 
kymmoy_phone 0.0234285 -0.490534 -0.633638 -1.36183 -0.657524 0.751961 0.535182 0.0780909 -1.31799 -0.877466 -0.1319 0.383002 0.0200866 -0.102652 0.551568 -0.0572943 0.218589 -1.095 -0.505705 0.401757 -0.482189 -1.03907 -0.254927 0.603017 0.856103 0.36334 -1.02069 0.584611 0.936949 0.5205 -1.17139 -1.34478 0.736813 0.1566 0.695528 0.733772 0.605433 -0.686161 0.18844 0.718145 0.849241 -0.996486 -0.497874 0.0673449 0.487431 0.44743 -0.477629 -0.429334 0.485717 0.1652 -1.20363 0.801059 -0.199356 0.154417 0.982024 1.14257 0.692628 0.229561 -0.969244 -0.742183 -0.0720297 -0.167543 0.0092155 0.363724 
resto_beijing_expensive_japanese_2stars 0.0399278 -1.12404 -2.17405 -0.778017 -0.469228 0.362553 -0.178253 -1.10403 -0.522919 -0.946757 1.80442 -0.570548 0.141391 -2.40582 -1.49028 -0.342724 -1.26421 -1.03624 0.484903 1.34352 1.33362 0.116212 1.24178 0.331298 0.0573202 0.735862 -2.12644 1.70118 -0.165015 0.459786 0.246207 -0.883979 0.857377 2.08432 0.705975 1.00922 -0.324905 0.874195 1.44904 -0.298877 -1.05163 -0.390049 1.8179 0.632902 1.35209 0.219758 0.0507262 -0.76646 -0.241603 0.640659 -0.760936 0.662817 -0.0683558 0.0233166 0.826536 1.13211 0.861751 2.26693 0.0556871 -0.6061 -0.497309 0.120853 0.59971 -0.596652 
resto_rome_moderate_french_3stars_phone 0.254043 -0.581542 -0.372943 -1.19304 -0.682204 1.03952 0.333743 -1.12515 -1.25581 0.18922 -0.146365 -0.60863 -0.227829 -1.48551 -0.270161 0.335614 -1.12831 -0.357316 -0.719708 -0.558788 -0.118238 0.470185 1.0546 0.288373 0.0468028 -0.30794 -0.706392 -0.493617 -1.27022 0.103705 -0.0546064 -0.297884 -0.515076 1.21507 -0.076926 0.0922611 -0.888822 -0.22422 0.219109 0.0830574 -0.0648212 0.317719 1.23362 0.86444 0.810917 -0.331822 0.926744 0.38865 0.688612 0.0343873 0.0934887 -0.101203 -0.424367 1.13556 0.0371547 0.492546 -0.586131 1.53026 0.700736 0.704884 0.139025 -0.312784 0.09878 0.997108 
resto_tokyo_cheap_thai_1stars_address 0.218229 -0.859039 -0.353314 -0.569832 0.0759364 0.943463 -0.869367 -1.08581 0.635006 -1.11693 0.286118 -0.772136 0.446312 -0.513959 0.419935 -0.423995 -0.508028 0.422589 0.481392 -0.532846 0.191846 -0.592124 0.924167 0.466835 0.155399 -0.260462 -0.771061 -0.324274 0.08023 0.0469668 0.180687 -0.0707918 -0.499938 1.18831 -0.636198 -0.0674117 0.425121 -0.408569 0.57954 -0.622907 0.326431 -0.839727 0.747364 0.85016 0.451685 0.195982 1.13387 -0.227193 -0.634379 0.0620034 -1.23206 -0.769141 -0.000975119 0.914375 -0.100287 -0.612784 -0.364839 -0.374871 0.954013 -1.30249 -0.141862 -0.319384 1.2305 0.0778554 
resto_paris_moderate_indian_1stars_address 0.28606 0.80526 0.0652398 -0.819172 -0.573472 0.645848 -0.0946321 -1.00936 0.447283 -0.498737 0.251689 -0.102261 -0.605286 -1.46424 -0.321289 -0.385105 0.27795 0.73141 -0.571399 0.677256 -0.633316 0.620748 0.749517 -0.175777 0.54899 -0.336738 -0.933538 0.624308 -0.191606 0.193024 0.367719 -1.08685 0.480965 0.943822 0.335227 1.23688 -0.360763 -0.914654 -0.473942 0.3112 -1.02332 -0.956572 0.686284 -0.278675 -0.0508154 0.24049 0.177325 0.075565 0.704379 -0.177226 -1.01398 0.21934 -0.942592 0.367609 -0.35513 0.794908 0.25626 1.20669 -0.411819 -0.437757 -0.013124 0.148019 0.853461 0.821903 
wagamama_post_code 0.30012 0.319818 0.046667 -1.50483 0.805128 0.0087948 -0.165843 -0.233004 -0.859337 -0.18334 0.0416841 -0.466027 1.01019 -1.13653 0.00182021 0.912914 -0.872384 -1.09977 -1.03501 -0.318119 1.02643 -0.878236 -0.133432 0.0711515 0.552833 0.298536 -0.222454 0.452582 -0.635887 -0.255895 -0.0455571 0.180102 0.302449 1.41525 0.267386 -0.00360198 0.509587 0.61946 -0.690183 -1.0028 -0.680153 -0.607226 0.984015 0.611068 0.884947 0.129974 0.256696 0.903879 0.540165 -0.12593 -1.32998 -0.801511 1.14131 0.187522 1.61667 -0.0858565 -0.745317 1.30617 0.443823 0.0433848 0.0549605 -0.363616 -0.379516 -0.471747 
resto_seoul_cheap_japanese_7stars_address -0.0386062 0.383304 -0.986307 0.215005 -0.196619 0.649556 0.152996 -0.500891 -0.57177 -0.642807 -0.659778 0.493706 -0.797371 -0.628301 0.723497 -0.113372 -0.765694 0.180947 0.0715021 -0.206282 -0.352014 0.651009 0.886952 0.751968 1.04423 0.833997 -0.55157 1.07172 -0.753479 0.414459 -0.135808 -0.919499 0.533944 0.25679 -0.794591 0.681215 0.30088 -0.46659 0.558656 0.364627 -0.327869 -0.551267 1.29657 0.989204 1.14749 -0.5854 -0.0457266 -0.407788 -0.923656 0.2099 0.0846535 -0.375069 0.785882 0.0017465 0.393255 0.00906727 0.268207 0.894314 -0.297915 0.467758 0.442714 0.765167 -0.456864 0.362648 
resto_madrid_expensive_indian_4stars_address -0.450924 -0.688361 -0.579847 -0.0139778 -0.911265 0.18381 -0.00405397 -0.548099 -0.0699593 -0.0586257 0.982378 0.296779 0.251019 -0.991692 -0.706671 -0.827672 -0.169374 -0.358661 -0.845858 -0.602174 0.696183 0.30716 -0.223755 0.0292574 0.0321988 -0.819439 -0.607099 1.44849 0.612663 0.574656 -0.863897 0.24341 0.60266 1.52589 -0.489845 0.466755 -0.518418 -0.225215 0.116981 -0.0950365 -1.24457 0.0619606 -0.237992 0.203079 0.961897 1.77696 -0.408047 -0.199763 -0.0324122 0.220663 0.259464 -0.438619 -0.0919458 -0.0115019 1.87876 0.718894 0.526262 0.582875 0.185355 0.265385 0.11639 0.355851 -0.458709 -0.0455509 
resto_beijing_moderate_cantonese_3stars -0.420508 -1.38304 -1.10815 -0.800617 0.487269 1.23398 -1.7874 -0.254322 -1.77698 -0.860339 1.58125 0.563737 0.659428 -2.5958 -2.19326 1.05454 -0.768949 0.128059 -1.13608 0.827556 1.21017 -1.09639 0.615867 2.69165 0.322784 -0.565639 -2.13631 2.09199 -0.318241 0.88629 -1.26502 -1.51975 0.807798 3.03159 -0.324927 1.78661 -1.1936 -0.875027 0.676667 -1.05696 -0.866714 -0.65267 1.13043 1.22895 0.870278 1.29791 1.22951 0.494257 -1.05569 0.00643541 -0.855343 -0.546531 -0.223703 0.3867 1.21051 0.737392 1.21711 2.46266 0.532469 -2.01038 -0.973799 0.161195 1.65027 -0.0412725 
resto_tokyo_expensive_cantonese_3stars -1.44354 -1.92874 -1.37636 -1.68982 -0.984412 1.21669 -0.667724 -0.699631 -0.902088 -1.58354 1.73458 1.52795 0.0252511 -3.69627 -2.21112 -0.287026 -1.83129 0.257747 -0.515773 1.28894 1.0179 -1.50457 1.37317 2.32655 0.589785 0.0277741 -2.23906 1.23123 -0.984701 0.402809 -0.742048 -1.88038 0.570663 2.05542 0.021008 0.942115 -1.46586 0.283649 0.520053 -0.729927 -0.0219727 -1.28397 1.59828 0.325818 1.43656 2.12111 1.36297 0.165578 -0.0429682 -0.3004 -1.42564 -0.269239 0.319015 -0.460209 0.775851 0.307051 -0.436844 2.24653 0.265305 -2.17075 -0.330605 1.13661 0.89929 0.218942 
resto_tokyo_moderate_vietnamese_3stars_address 0.785299 -0.438645 -1.22286 -0.288561 -0.0739255 0.705422 0.399505 -0.619817 -0.157486 -0.118843 0.469353 -0.025743 0.297625 -0.0238527 -1.04879 0.749293 0.704114 0.675014 -0.680802 1.21436 1.06362 -0.132568 -0.781749 0.64394 -0.243782 -0.843472 -1.16404 0.222225 -0.617736 0.417592 0.783114 0.479459 -0.135991 -0.289561 -0.808234 0.506524 0.100487 -0.653648 -0.159683 -1.06401 0.605002 -0.871508 -0.146983 -0.450306 0.475595 0.812629 0.661691 0.195903 -0.730452 -0.154777 -1.18556 -0.52319 0.959179 0.833661 0.7766 -0.254312 0.178715 1.41968 0.960037 -1.2391 -0.369583 -0.563763 1.20661 0.963818 
resto_seoul_expensive_korean_7stars_address 0.3249 -0.660574 -0.480956 -0.333015 -0.59124 0.0917597 0.92763 0.22314 0.506785 -1.12503 -0.669272 -0.65338 0.532372 -1.3128 -0.909089 0.420966 0.371869 0.273727 -0.318074 0.473804 0.632751 0.25108 0.156788 1.1181 -0.364048 0.116209 0.417608 -0.381431 -0.891531 -0.475167 -0.903654 -0.830181 1.00928 0.657044 -1.14598 -0.0953945 -0.966136 -0.783546 0.677932 -1.03603 -0.838259 -0.822684 0.905559 0.576253 0.0712974 -0.150626 -0.602181 -0.242395 -0.438699 0.956335 -0.351724 -0.0688232 1.04468 0.55937 0.0434279 0.331811 0.228975 0.682175 1.22697 -0.681159 -0.52575 0.133082 0.219367 0.889351 
prezzo_post_code -0.458003 0.0717106 -0.860108 -1.13781 0.113897 0.0461103 -1.22194 0.365561 -0.510119 -0.201713 0.884744 0.740569 0.501057 -0.486823 -0.850405 -0.691713 -0.873032 -0.184303 -0.950339 -0.181749 0.833862 -0.48502 0.182843 1.02461 0.563498 -0.155595 -1.24505 0.0829945 0.529319 0.339309 -0.820383 0.335075 0.0112339 0.36561 -0.805768 1.38905 -0.435441 0.515404 0.0843086 -0.311612 0.375281 -0.819409 -0.306532 0.000572199 1.02284 1.10705 0.885997 0.949392 0.0531637 -0.747728 0.0313509 -0.783292 0.894929 0.265449 1.09989 0.230702 0.61434 0.790876 1.24255 0.545646 0.0533271 -0.488337 -0.837711 -0.116685 
resto_rome_expensive_british_4stars_phone -0.904128 -0.61773 -0.77409 -0.244997 0.45989 0.915555 0.392786 -0.594774 -0.944999 -0.523556 0.0378669 -0.360611 1.1225 -0.54003 -0.0814244 0.0220716 -0.718416 -0.693445 0.17461 0.88099 0.844596 -0.121001 0.326862 -0.506677 -0.110558 0.283514 0.330536 0.15699 -0.075049 -0.28664 -0.231502 -0.645523 -0.383126 1.32587 0.957369 0.683385 0.762429 -0.227281 0.738266 0.151372 0.074362 -0.978354 -0.103101 0.026414 1.03565 0.773915 -0.777103 0.457469 0.632646 -0.532471 0.306334 -0.516358 0.31015 -0.797471 0.374124 -0.0185628 -0.706477 -0.104672 -0.227602 -0.834271 -0.698605 0.365577 -0.08284 0.512769 
resto_paris_expensive_british_3stars_phone -0.117499 -0.436432 -0.384475 -0.406006 0.338215 1.2889 0.555877 -0.721915 0.679764 0.555554 0.505946 -0.559195 -0.255019 -1.02703 -0.41472 0.514159 -0.62859 -0.964118 -0.828439 -0.441604 -0.875838 0.262494 1.21994 0.705807 1.25282 0.832132 -0.724349 -0.0852233 -1.1484 0.768772 -0.698085 -0.962148 0.266138 -0.0298632 -0.335292 0.526476 -0.898627 -0.529729 -0.23878 -0.169603 -0.475361 -1.33771 -0.285731 1.02071 1.69789 0.99178 0.0132222 -0.342929 -0.509097 0.180775 -0.651673 1.32588 -0.612156 0.516797 0.300409 0.35527 -0.0523942 0.0432083 0.547168 -0.903359 -0.0679177 -0.139328 -0.135836 -0.123732 
resto_madrid_expensive_french_4stars -0.863901 -1.32507 -0.42661 -0.950738 0.170137 0.898331 0.301545 0.108257 0.650836 0.0677071 -0.341531 -0.322933 0.310957 -1.05239 -0.990313 -0.7002 -0.491762 -0.944933 -0.843003 -0.167102 0.272643 -0.672856 -0.229766 0.152619 0.646874 0.609984 -1.28676 -0.205082 -0.896077 -0.72798 -0.433711 -1.1999 -0.00346802 1.01276 0.578378 0.564799 -0.922137 -0.558307 1.10329 -0.163491 -0.0494182 -0.422493 1.11937 0.119241 0.678229 0.130785 0.747717 0.582193 0.144324 -0.211882 -0.488545 -0.290361 0.426513 -0.814167 0.910911 -0.239905 0.444286 0.343598 -0.0519431 -0.520401 -0.976557 -0.502587 0.689907 0.69147 
resto_seoul_moderate_japanese_3stars_address 0.0130296 -0.976586 -0.302097 -0.342525 0.0305585 -0.112505 -0.646405 -0.317578 -0.754631 -0.281958 -0.0408191 0.588995 1.14759 -0.715215 -0.603041 -0.0132654 -0.451611 0.164336 -0.162117 0.589351 -0.779665 0.211957 1.02754 0.187673 1.10039 0.560773 -1.1205 0.646531 0.672123 0.368956 -0.615843 0.147905 0.22494 0.0765289 0.289207 -0.0771451 -0.556189 0.839544 0.65621 -0.231899 0.109708 -0.0244527 0.317439 0.586147 -0.351967 -0.597213 -0.0664284 0.586027 -0.222435 0.561062 -0.262424 0.688828 -0.651044 -0.212335 0.78318 1.19213 -0.305808 0.520126 -0.341751 -0.177781 -1.04398 -0.206866 -0.409274 -0.253408 
resto_seoul_expensive_japanese_3stars_phone -0.295916 0.581241 -1.19315 -1.02112 -0.530951 0.133762 -1.09705 0.403291 -1.28833 0.258754 0.491677 1.10206 -0.451867 -1.14706 0.35427 1.06173 -0.59859 0.171487 -0.921347 1.23071 0.885389 -0.573025 1.02993 0.0513077 0.545517 0.175499 -0.945582 -0.456022 0.140428 0.726954 -0.125134 0.267229 0.488766 0.0360829 -0.77935 -0.0211409 0.204873 -0.765592 0.820406 -0.686864 -0.611079 -0.196759 0.464619 0.579975 1.28608 0.259696 -0.124003 0.951991 0.145407 -0.746219 -0.773291 0.861293 -0.480885 0.929775 0.31586 -0.213824 -0.719859 -0.116316 0.912267 0.0729957 -0.0776724 -0.588538 -0.532528 -0.296099 
resto_bombay_cheap_italian_8stars -0.547745 -1.11863 -0.711995 -0.901532 -0.421657 1.0115 -0.470713 -0.339372 -0.956372 -1.22312 0.276895 0.744706 1.46052 -1.13164 -0.690574 0.577749 0.378826 -0.786543 -0.763249 0.483446 0.615666 0.554436 -0.642668 -0.00608108 0.798556 0.178192 -1.1256 1.59551 -0.0173911 -1.06441 -0.756703 -1.46369 -0.13337 0.27569 0.463579 -0.577623 0.00787132 -0.548737 -0.109167 0.465428 0.74917 0.828837 0.602106 -0.0797314 -0.210215 0.701022 -0.197105 -0.762951 -0.0613655 -0.0180441 0.31587 -0.562554 0.0158113 -0.760027 0.70482 -0.252488 0.636853 1.04387 0.247279 -0.890377 -0.520043 0.339681 0.273071 0.0208078 
resto_madrid_moderate_spanish_2stars_address 0.0556893 0.279844 -0.828045 -0.464552 -1.04333 -0.410428 0.307722 -0.614875 0.431483 0.0210752 -0.338461 -0.672047 -0.717022 -0.38533 -0.909569 -0.570759 -1.12521 0.659834 0.258542 -0.57309 0.653622 0.664071 0.406755 0.175589 0.911069 0.807188 -0.660364 0.469787 -0.722849 -0.727338 -0.664342 -1.25457 -0.398471 0.840925 0.291069 0.554564 0.57984 -0.155459 -0.125961 -0.933023 -1.10884 0.262341 0.556351 -0.31356 0.815602 0.931705 -0.00848392 0.317741 -0.907691 0.0958902 -1.13983 0.941317 -0.0760236 0.0823759 0.662986 -0.252048 0.566594 1.02896 0.826984 0.516967 -0.381503 -0.493257 0.781717 0.284059 
resto_bombay_moderate_indian_5stars_address -0.0757061 0.55596 -0.822683 -0.583682 0.129414 0.994093 0.671964 -0.721827 -0.451149 -0.745003 -0.0329558 0.818293 -0.30007 -0.22698 -0.428476 0.726316 0.0733121 0.681735 0.154371 0.802813 0.0156557 0.6571 0.802611 -0.484762 -0.0387944 -0.230334 -0.486254 -0.0478551 0.0482878 0.920463 -0.404646 -0.112573 -0.334537 1.4092 -0.548668 -0.499679 -0.470159 0.861574 -0.771215 0.693008 -0.530603 0.592391 -0.206752 -0.386726 0.130426 -0.324754 -0.637723 -0.406368 0.244562 -0.542277 -1.2753 -0.565292 0.952629 0.591418 1.31877 0.538348 0.717821 1.24388 0.228966 -1.09717 -1.15876 0.405208 0.699044 0.741099 
resto_madrid_cheap_british_5stars_phone -0.535642 0.361757 0.372975 -0.814257 -1.01153 1.4145 -0.185315 0.057504 -0.120358 -0.955208 -0.426802 0.923963 0.577042 -1.30651 -0.620649 -0.43925 -1.13229 -0.555945 0.165682 -0.376889 1.10612 0.0489816 -0.148977 1.08693 0.0783104 0.889712 -1.09724 1.23903 -0.603128 0.391012 0.273707 0.00805085 -0.416188 0.250235 0.408497 -0.203927 -1.00478 0.853611 0.0552291 0.157831 -0.595019 -0.841883 0.018342 0.0524031 0.813952 -0.193562 -0.768999 1.10284 -0.269524 0.535616 -0.71385 -0.396378 0.888689 -0.96718 -0.1204 1.19946 0.479965 1.3723 0.977725 0.625462 -0.83762 -0.680368 0.22646 0.454495 
told -0.893459 -1.03962 -0.78382 0.663123 -0.423285 0.566956 -0.954177 0.0208194 0.610825 0.47861 -0.20615 0.873638 0.0720767 -0.981892 0.565648 -0.389641 -0.37521 -0.553212 0.663896 0.89534 -0.840931 -1.15432 0.190437 0.762715 0.576378 -0.727887 0.174725 -0.408407 -0.45389 0.189825 -0.0568258 0.280979 -0.542476 1.24154 -0.734783 -0.615788 0.047117 -0.379937 0.69703 0.77061 0.0271645 0.506914 -0.197995 -0.338834 0.901509 0.910475 0.238127 -0.242864 -0.317939 -0.375771 0.0656865 0.189148 -0.524662 0.604345 -0.616872 0.307644 0.655114 0.417062 0.277424 -1.07274 -1.08852 -0.372493 0.591376 0.136212 
resto_paris_expensive_spanish_6stars_address -0.203116 0.539526 -1.0028 -0.865455 0.203915 -0.340353 -0.618246 0.120722 0.106647 0.351201 0.833494 -0.782385 0.993243 -1.62587 0.556362 -0.715483 -0.535772 0.688606 -0.277723 -0.801833 0.802748 -0.131466 0.763965 0.59818 1.26274 0.118252 -0.937411 1.04313 -0.391397 0.163408 0.0563367 -0.386807 0.657101 0.46428 -0.590225 0.135873 -0.370732 -0.72429 0.117237 -0.357253 0.466105 -0.66133 0.0543706 -0.357084 -0.0927651 0.77114 1.25922 0.934491 1.00841 -0.806182 0.598194 0.793467 0.260133 0.507875 1.19962 -0.185668 0.831983 1.28306 0.0801142 -0.759241 -0.398897 -0.33883 -0.202668 -0.0936958 
resto_tokyo_cheap_thai_6stars_address -0.270083 -0.521631 -0.445382 -0.661114 -0.669033 1.26135 -0.739642 -0.633618 0.205638 0.559242 0.813727 -0.311423 0.745064 -0.645846 -0.384292 -0.234845 0.139094 0.825672 0.580773 0.0798311 0.97516 -1.10212 -0.203558 0.374546 -0.156761 0.555947 0.493173 0.2183 -0.811056 0.0776828 -0.273235 -1.34268 -0.0762718 1.31721 -0.530757 0.547526 -0.248523 0.686614 -0.59194 0.781222 -0.592116 0.386445 -0.597031 -0.616625 0.238928 -0.217036 -0.298629 0.522961 -0.887279 -0.933333 0.260591 0.0693576 -0.289608 0.0387315 0.320309 0.446874 0.503339 0.318776 1.01846 -0.217527 -0.911061 -0.661626 -0.327242 0.377871 
resto_hanoi_expensive_thai_6stars_address -0.792626 -0.126884 -1.0081 -0.466464 -0.720723 1.3026 -0.915845 -0.291026 0.320719 -1.10871 0.199354 0.6227 0.479905 -1.65511 -1.20644 0.303437 0.483714 0.444781 0.0173154 0.553295 0.875803 0.704222 -0.412902 -0.188836 1.15236 -0.478136 0.497195 1.08587 -0.818511 -0.199416 -0.718999 -0.0298227 0.118324 -0.315855 0.630305 0.888106 -0.485981 -0.0830217 0.479416 0.689385 0.136779 -0.569384 0.805615 -0.228978 -0.00190063 -0.646291 0.750014 0.711238 0.483286 -0.040093 0.0603217 -0.366183 0.134836 -0.81325 0.0615791 -0.128068 0.0851035 -0.111084 0.00396467 -0.558948 -0.498434 0.274969 0.697398 0.320584 
resto_madrid_expensive_british_6stars -0.997928 0.208891 -0.798272 -0.642957 0.831113 0.235127 0.330413 -0.763563 -0.723516 -0.411721 0.633034 1.29193 1.05164 -0.811717 -0.501832 0.66103 0.197185 -0.448858 0.124904 0.202236 0.335761 -0.99255 -0.390113 -0.0939032 0.0580289 -0.0912289 -0.998235 0.987795 -0.0109818 -0.174427 -0.656084 -0.376664 -0.371643 0.505076 0.518027 -0.287226 -0.00372858 -0.154819 0.467693 0.0114798 -0.138964 -0.759997 0.672608 0.678708 0.553701 0.661287 0.318947 -0.373123 -0.0321546 -1.0217 -0.12719 0.993649 0.342384 0.474154 -0.665073 1.42695 0.0690385 0.036779 -0.292828 -0.800279 -0.147319 1.05221 1.10559 0.242089 
resto_bangkok_cheap_korean_6stars_address -0.917989 -0.057 -0.884616 0.146723 -0.390708 1.03205 0.763107 -0.560671 0.360606 -0.611262 0.25592 -0.821618 0.0361008 0.155055 0.443801 -0.0665691 0.129923 0.308935 -0.791212 1.17564 0.160351 -0.230283 0.729843 1.05306 0.458745 0.573851 -1.16721 0.0500218 -1.04334 -0.700057 -0.510814 -1.30849 0.385386 0.207149 0.536031 0.759413 0.282869 0.578124 -0.34252 0.271369 0.176709 -0.219545 -0.0751456 0.822018 0.384051 0.57699 -0.284935 -0.643569 -1.00907 0.642485 -0.198164 -0.346112 -0.359229 -0.99765 0.727651 -0.468718 0.955966 -0.0266717 0.455741 -0.541171 -0.515367 0.587258 -0.473288 -0.790428 
resto_paris_expensive_spanish_4stars_address -0.184095 -0.978868 -0.333189 0.00909861 0.323033 0.464089 0.695412 0.334237 -0.644981 -0.521155 -0.485445 0.151941 0.794875 -1.45937 -1.0763 -0.321894 0.0287245 -1.05411 -0.578761 1.07532 0.0563341 0.791726 -0.278904 0.508316 -0.352013 -0.384271 -0.0980462 0.55937 0.579911 -0.663672 -0.864158 -0.569886 -0.0864529 -0.244884 -0.847327 1.62228 0.324419 0.0100694 0.674644 0.451843 0.132729 0.192644 0.661147 0.639002 0.416954 0.969379 -0.35553 0.202128 0.957145 0.422447 0.0494176 0.947533 -0.111648 -0.815522 1.51424 -0.00174922 0.585681 1.29524 -0.466724 -0.589692 -0.277299 0.842383 0.914608 -0.634938 
resto_madrid_moderate_british_5stars -0.775983 -0.495793 -1.73134 -0.705093 0.413621 0.399855 -0.536584 0.0748109 0.107437 0.104554 0.100844 0.280966 1.4904 -2.77273 -0.156383 0.987854 1.13617 -0.913036 -0.38136 1.04782 -0.0445617 -0.0200345 1.02099 -0.0858449 -0.0189118 0.0128785 -1.36025 0.691027 0.107328 1.47757 0.227844 -0.785944 0.707306 1.27623 0.778441 0.331161 0.570441 0.539925 0.417678 -0.65191 -0.871588 -0.135904 0.815324 -0.0523833 0.841055 1.54616 0.0165362 -0.509454 -0.00168685 -0.6522 0.119381 -0.190671 0.948234 0.298299 1.1957 1.63365 0.936656 0.23394 1.59485 -1.74918 0.0192562 0.269335 1.34533 -0.271814 
da_vinci_pizzeria 0.694045 -0.208002 -0.860473 0.352531 0.0197694 1.31202 -0.127425 -0.876277 -1.1091 0.22978 0.515193 0.0914052 1.23348 -0.975926 -0.256469 0.422309 0.0902789 0.0365528 -0.576139 0.0131586 -0.318672 0.197502 0.392683 0.491392 -0.30699 -0.432592 -0.871223 0.850144 0.806075 -0.843936 -0.514232 -0.500869 -0.153719 -0.12613 -0.171004 1.10195 0.649041 0.614565 -0.380856 -0.0446458 -0.223869 0.349556 0.18758 -0.298014 0.674004 0.733388 1.39072 0.252767 -0.577095 0.361611 -0.490847 0.45323 0.523597 -0.448232 0.15605 0.986065 1.02154 1.13284 0.186166 -0.660115 0.368531 0.677069 0.773927 0.777694 
here -0.608627 -0.559916 -1.36312 -0.231989 -0.411442 0.237752 0.17772 -0.263185 -0.57507 -0.61991 -0.131507 -0.706537 0.485353 -0.653988 0.0117902 1.00231 -0.27838 -0.0290171 -0.380611 0.992911 -0.221469 0.139186 -0.0855706 0.620251 0.421265 0.39601 -0.801309 1.20901 -0.0998711 0.873136 -0.23046 -1.17559 0.836983 1.13057 0.335834 1.02611 -0.409324 0.454883 1.24458 0.518063 -0.309918 -0.937879 0.333728 -0.60055 0.0224698 0.219991 -0.073906 0.526893 1.00079 0.72816 -1.40365 0.280287 -0.852445 -0.0977626 -0.575781 -0.490113 -0.0964978 1.2375 0.290435 -0.356473 -1.35582 -0.708435 0.358296 -0.581033 
bangkok -0.640811 0.438482 -0.736028 -1.53404 1.06839 0.514113 0.717964 -0.894593 -0.64715 0.0939224 -0.510195 -0.0626287 1.26985 -0.289239 -0.289302 -1.05169 -0.219211 0.540725 -0.735826 -0.257873 0.434599 -0.105237 1.09874 1.60746 0.278966 0.987889 0.107774 0.507235 -0.172422 0.509619 -0.61573 -0.665299 0.451351 0.389439 -0.163291 0.815195 -0.875138 1.27735 1.17764 0.459427 0.864579 -0.326159 0.280843 0.203254 -0.689727 0.260191 1.24193 -1.26858 -1.01726 -0.176168 0.343431 0.448104 0.795445 0.074165 0.58253 0.0614116 -0.206589 0.736555 0.652604 -0.0228153 0.581986 1.15355 -0.0128477 0.112107 
resto_bombay_expensive_british_7stars -0.798666 -0.781495 -0.911488 -0.621475 0.48287 1.41851 -0.91191 -0.949278 -0.825147 -0.828662 -0.549728 0.846269 1.29026 -0.708816 0.321219 -0.558061 0.48478 -0.241507 -0.573375 1.70729 0.389888 -0.990327 0.629663 0.567455 0.892431 1.19906 -1.10013 -0.250093 -0.759797 1.22142 -0.167723 -0.833449 -0.616328 0.269449 1.25294 -0.00951187 -0.818535 0.881373 -0.0295019 -0.0366939 -0.492212 -0.229306 0.600551 1.16355 0.689566 0.712749 0.871732 0.545097 0.285601 -0.638683 -1.58649 -0.0816794 0.0197832 -0.492193 1.047 0.410059 0.674402 1.6156 -0.00430447 0.416003 -1.34872 0.924296 0.808893 -0.945534 
resto_rome_cheap_italian_2stars_address -0.488821 -0.336042 -0.43561 -0.233752 -0.948689 0.141819 0.0344352 0.68476 0.0164424 -0.422856 0.557696 -0.268602 -0.224031 -0.814272 -0.861067 -0.0067927 -1.13241 0.459903 -0.944552 0.625202 0.72885 -1.17784 -0.206012 0.538734 0.838721 -0.670307 -0.160346 -0.293049 0.629365 -0.694448 -0.864542 0.169851 0.559907 0.526736 -0.585998 -0.107621 0.406061 0.45693 0.13945 -0.243369 0.527959 -0.0612075 0.388715 0.449022 0.0586068 0.0205123 0.57806 0.900728 -0.218425 -0.253171 -0.308789 0.976151 -0.468821 0.743717 0.947352 1.18258 0.0794222 0.268081 1.02168 -0.151644 -0.0089606 -0.489736 -0.267832 -0.309105 
resto_bangkok_expensive_vietnamese_2stars_phone -0.339144 0.030333 -0.402034 -0.758629 0.192888 0.533057 0.429824 -1.00157 -0.738314 -0.495882 -0.236429 -0.394255 0.806526 -0.502371 0.0796537 0.373376 -0.252246 0.938238 0.620144 -0.391737 -0.724617 -0.691026 1.14253 -0.184694 0.519666 -0.809568 -0.804177 0.0887977 -0.245678 0.0931826 -0.94441 -0.379011 1.01338 1.41043 0.740283 -0.154417 -0.47239 0.279261 0.0967374 -0.770469 -0.636693 0.15578 0.741858 1.11556 -0.136258 0.0111733 0.895746 -0.273517 -0.865432 0.815886 0.103864 1.00711 -0.360567 -0.506187 0.2665 -0.38152 -0.0720429 0.391521 -0.675621 -1.17557 0.271921 0.160756 1.0643 0.421158 
resto_beijing_cheap_thai_7stars_phone 0.25199 -0.175987 0.276298 -0.457878 0.162345 -0.174682 -0.286134 -0.758633 -0.231023 -1.01663 -0.0787101 -0.303373 0.146271 -1.61967 -0.172307 -0.333941 -0.765933 0.0490718 -0.585957 -0.553214 -0.229655 -0.433156 -0.0564306 -0.411703 0.181941 -0.405934 -0.872848 0.912139 0.667824 0.97241 -0.0721426 -0.123184 0.0608813 1.33466 -0.389663 1.23399 0.33293 -0.126338 -0.0649097 -0.888886 0.476245 0.638574 0.325772 0.258225 0.81652 0.0433212 -0.276849 0.183976 -0.237757 0.538567 0.456534 -0.750063 0.23972 -0.79179 1.14052 0.0754184 -0.468221 0.75972 0.111782 -0.283417 0.101786 -0.545567 0.0193028 0.0257472 
resto_paris_cheap_french_7stars_address 0.298484 -0.349982 -0.509018 0.376727 0.472589 -0.228484 -0.802358 -0.410042 -0.493603 0.344853 0.850522 0.0938254 0.786714 -0.0179922 0.565594 0.464704 -0.170063 0.48574 0.935591 0.378282 -0.6554 -0.634443 0.486281 0.259929 0.980156 -0.340776 -1.09566 1.26402 -1.08073 -0.755405 -0.488329 0.381588 0.202647 1.06839 0.414333 0.35379 -0.188519 -0.980419 0.575956 0.153951 -0.681422 -0.445995 0.0374487 -0.404082 0.578141 1.22198 1.17096 0.484883 0.03098 -0.41194 -0.672091 0.537201 -0.221923 0.00472982 -0.266407 0.590554 0.398067 0.907764 0.27742 -0.977706 -0.714075 0.0320509 -0.0892656 1.00185 
fuck -0.843937 -0.910069 -0.253004 -0.859934 0.210538 0.557594 0.409573 -1.0435 0.0300634 -0.824184 -0.617086 0.409355 -0.0932521 -0.849369 -0.027726 -0.79877 -0.439014 0.0558578 -0.791907 -0.377622 -0.86162 -0.387993 0.12666 0.390163 -0.793519 -0.147122 -0.763089 0.712588 0.71952 0.426311 0.285185 0.0842279 0.00697651 0.0904352 -0.906571 0.934189 -0.708741 -0.710825 0.926976 -0.279788 0.738473 0.872185 0.148365 -0.306889 0.665498 0.326243 0.521202 -0.0658649 0.566056 0.354045 0.275559 -0.481418 -0.705874 -0.587306 0.258031 0.503833 -0.481362 0.74562 0.789056 0.518405 -0.658282 0.560047 0.608977 -0.145499 
resto_paris_moderate_spanish_6stars_phone -0.259059 0.0298968 -0.39343 -1.20083 -0.0700265 0.236056 -0.100761 0.617707 -0.92243 -0.923821 0.844336 -0.343367 0.0227212 -0.0338488 -0.558495 0.480328 -0.970776 -0.647118 -0.193964 1.00363 0.534193 -1.10831 0.798404 0.805843 0.890819 0.0156227 -1.24737 0.0876746 0.7248 -0.451997 -0.394863 -0.226668 -0.000656608 -0.306607 -0.660563 1.07324 -0.155192 -0.648313 0.731349 -0.0209749 0.278465 0.252971 -0.368732 0.372276 -0.0328013 -0.17953 0.969395 0.321552 0.0529471 0.875731 0.466189 0.940586 0.561389 -0.99145 -0.373431 1.15316 0.575648 1.22142 -0.670733 -0.50188 0.207114 0.354393 1.10043 0.461053 
resto_beijing_expensive_thai_5stars_address -0.162471 -1.21092 -0.738294 0.128943 0.161841 0.475373 -0.625809 0.38411 -0.958566 -0.867367 1.09167 -0.0253777 0.61181 -0.839603 -0.278707 -0.0453743 -0.206652 0.168363 0.23486 -0.736052 0.32678 -0.195199 -0.0203144 1.30999 -0.223534 0.719516 0.539042 -0.597825 -0.0535019 0.914239 0.707756 -0.870563 1.04679 1.16284 -0.67807 0.349557 0.0275119 0.627503 -0.709477 -0.658832 0.122325 -0.0198632 -0.579698 0.941205 0.575556 0.396434 0.955811 0.0508038 0.457902 0.393013 0.677238 -0.694054 -0.672832 0.714567 -0.350282 0.129501 1.02846 0.97018 0.444613 -0.227494 -0.23962 -0.360477 0.1209 0.144165 
royal_spice_address -0.124767 -0.728353 -0.123301 -1.15538 -1.11199 1.17818 -0.107935 -0.00850893 -0.0786276 -1.00578 -0.653935 0.205341 -0.31366 -1.19009 0.490366 -0.591418 -0.889298 -0.328838 -0.150439 1.2554 -0.294509 -0.328737 -0.416909 -0.0733179 0.946575 -1.12853 -0.204066 1.34331 -0.706134 0.625788 0.750389 -0.308898 0.218194 1.69879 0.0770903 1.37604 -1.4946 -0.517571 0.232216 -0.952213 -0.983415 -0.454839 0.35564 -0.710353 -0.361298 0.0977667 -0.375624 1.27606 0.528692 -0.225795 -1.48351 0.873018 0.0517296 0.46106 0.812258 -0.0224869 -0.255458 0.68919 0.993636 -0.825003 -1.03514 0.683663 -0.364075 -1.01811 
resto_london_cheap_british_6stars -1.58278 -2.03341 -2.03635 -0.277782 -0.170908 1.79358 -0.633993 -1.09778 0.0850039 -0.820643 0.646348 1.12909 0.44324 -1.88705 -1.57783 -0.374182 -0.260262 -0.460547 0.310226 0.672104 0.449243 -0.754096 1.74298 0.125285 0.842386 0.556365 0.0638403 0.909426 -1.66827 1.18191 0.212156 -2.67163 0.909662 2.23958 0.105118 -0.120248 0.291261 -0.216541 2.28442 -0.948661 -0.112946 -0.350526 1.22 0.761662 0.784174 0.782027 1.25846 -0.587339 -0.863763 -0.875904 0.55578 0.624838 0.249623 -0.968497 1.67538 0.111902 0.414316 1.38085 0.295988 -1.96453 -0.318305 -0.321037 0.754548 -0.206167 
unitelligible -0.0160036 -0.919958 -0.514626 -0.490012 -0.890975 0.51301 0.370661 0.276887 0.681681 0.288617 -0.255326 0.355235 -0.769709 -1.34249 -0.189097 -0.522125 -0.111724 -0.545874 -0.77343 0.69901 -0.824844 -0.745669 0.981881 -0.512718 -0.702828 0.596818 -0.741214 0.884704 -0.41829 0.195283 -0.341356 -0.449793 0.543555 0.964784 -0.0866824 -0.187685 0.466649 -0.92799 0.0874574 0.324072 -0.312497 -0.607745 -0.7641 -0.134157 0.56891 -0.682117 0.160876 -0.633461 0.729712 0.107753 0.0931167 -0.955759 0.91286 -0.436698 0.937172 -0.758021 -0.77227 0.573584 0.766896 -0.939635 -0.119149 0.141904 0.23014 0.0270896 
resto_hanoi_moderate_thai_6stars 0.920961 -0.490194 -1.03374 -0.67766 0.810269 0.312642 -0.754066 -0.788177 -0.840869 -1.22558 0.0078821 -0.409422 0.866161 -0.508735 -1.25759 0.461103 0.506899 -0.66178 -0.624624 -0.283467 0.721148 0.402775 0.974219 1.19714 0.894829 -0.480165 -1.56535 1.64363 -0.578677 -0.841758 0.136824 -0.98388 -0.560147 0.85486 -0.763428 0.610584 -0.385187 -0.280459 0.774216 0.0468023 0.285126 0.599303 0.247858 0.0519128 0.721423 0.647201 1.1542 0.318633 -0.139076 -0.0766702 0.447885 0.413058 1.09162 -0.413382 -0.499021 -0.404072 0.951498 1.79205 0.637448 0.468069 0.224458 -0.209318 0.373466 0.189254 
resto_madrid_moderate_indian_7stars_address -0.683112 -1.36853 -0.955255 -0.958634 -0.0406132 -0.375449 0.0257434 0.084497 -1.16074 0.767244 0.9307 -0.429127 -0.333856 -0.649941 0.322217 -0.691666 -0.420062 -0.0384107 -0.644976 0.368472 0.470907 -0.291878 -0.0656569 -0.525784 -0.386094 -0.611854 -1.50998 -5.80016e-05 0.411533 0.247153 0.0908614 0.186639 0.541661 -0.0368739 -0.406905 1.18038 -0.00653459 -0.277329 0.900144 -1.18394 0.731405 -0.0695942 0.301624 1.05586 0.933322 0.952523 1.19468 0.710842 0.924346 0.062424 -0.0602827 -0.366992 0.967403 -0.138021 1.26345 -0.256302 -0.954671 0.645459 -0.0384206 -0.117899 -1.00167 0.941829 1.04936 -0.570111 
resto_madrid_cheap_indian_7stars_phone 0.387773 0.162982 -0.34384 -0.612539 -0.758097 0.498213 0.630041 0.500712 -0.781114 -0.299802 -0.0597573 0.98135 0.344921 -1.54669 -0.932041 0.82372 0.506612 0.85162 -0.89331 -0.173834 0.028375 -0.142406 1.21744 -0.237961 0.893984 0.830651 0.0628963 0.683741 0.331185 0.7767 -0.021338 0.0330145 0.397606 0.987284 -0.208055 -0.310865 0.0749357 -0.011989 0.320672 0.222481 0.707895 0.407126 1.16838 0.901486 1.21326 0.51362 0.295761 -0.23357 0.416147 -0.322091 0.261877 0.0924359 0.208839 0.0917973 0.794162 0.406866 -0.158209 -0.222212 1.15788 -0.10367 -0.182799 -0.0190136 -0.627555 -0.127018 
resto_london_expensive_italian_3stars_phone -0.373145 -0.532585 -0.152281 0.203043 -0.857444 0.398711 0.00946892 -0.120286 -0.8304 -0.153427 0.671295 0.0055071 0.720032 -0.772615 0.0205874 -0.201552 0.690183 0.0167354 -0.536561 -0.0907768 0.789751 -0.645304 1.28062 -0.0345226 -0.237596 -1.03323 0.0497823 -0.115454 -0.0116241 0.0947881 0.0987081 -0.07433 0.48307 -0.0435859 -0.438868 1.13558 -0.208955 -0.00628174 -0.713587 -1.00545 0.0420155 -1.23245 0.331124 0.742433 1.24605 0.0572832 0.513136 0.168193 -0.320993 0.521034 -1.25431 0.234985 -0.208137 0.595625 1.06733 0.47135 -0.759314 1.67223 0.38493 0.331347 -1.20194 -0.579963 -0.229388 0.360534 
resto_hanoi_expensive_vietnamese_8stars -0.760665 -0.945485 -0.872387 -0.983882 0.833669 0.628811 0.57727 -0.642049 -0.738463 -0.921759 0.431862 -0.12372 0.26697 -1.08919 -1.28827 -0.829757 0.532327 -1.06548 0.7563 0.554852 1.06378 -0.379543 0.232735 1.08173 0.583739 -0.869913 -0.464327 1.35564 0.585372 0.0115628 -0.599531 -0.742616 -0.00443841 1.06288 0.840294 -0.379293 0.0903445 -0.127983 0.588952 -0.663554 -0.180539 0.273489 0.511282 0.556022 0.927926 0.756166 0.998751 -0.311818 0.37353 -0.461872 -0.341654 -0.402119 0.164364 0.0700299 0.499965 -0.196363 1.21408 0.0177365 0.54662 0.613388 -0.971203 0.470209 0.964721 0.0942833 
ty 0.779595 0.30239 -0.476795 -0.514985 0.630153 0.926011 -0.639539 0.0919195 0.519506 -0.704213 0.402276 -0.620434 0.885366 -0.585808 -0.621874 0.342169 -0.61945 0.954267 -0.919602 -0.659365 -0.667733 0.495191 0.480738 0.863926 -0.518473 -0.52573 -0.472706 0.585289 -0.0926773 -0.171812 -1.01601 0.647233 1.00372 1.0922 -0.0292304 -0.0989013 -0.757546 0.181916 0.0767658 -0.476956 -0.191275 0.363241 0.953405 0.774609 0.381093 -0.618104 0.148125 0.0727585 0.249206 -0.334152 -0.189016 0.776802 0.708641 -0.576056 -0.270629 0.648002 0.238304 -0.113206 -0.704231 0.652456 -0.923484 -0.124368 0.682067 0.481932 
resto_london_expensive_indian_5stars -0.226146 -0.593533 -1.53563 -1.24211 0.348482 2.36342 -1.42147 -0.0275235 -0.420893 -2.0648 1.44942 0.559675 0.627469 -3.54336 -2.40036 0.275147 -1.03907 -0.648314 -0.605074 1.74866 1.43195 -1.2809 1.92717 1.01795 1.00858 -0.125387 -1.96695 1.29086 -1.08238 -0.125491 -1.11486 -3.03382 1.81711 2.75642 0.908515 1.28446 -1.14734 0.37609 1.48659 -1.29049 -0.736736 -1.58455 0.50497 0.45246 2.12728 2.01055 1.99923 0.258943 -0.925923 -0.705241 -1.47857 -0.113259 -0.1265 0.799732 2.38061 1.38209 -0.0109142 1.63694 -0.467203 -0.622757 -0.462121 0.677496 0.813986 -0.890007 
resto_bangkok_expensive_japanese_7stars_phone -0.0849283 -0.368735 -0.483043 -0.00473956 -0.763769 0.425744 -0.658633 -0.861104 -0.359962 -0.905754 -0.324142 0.723413 1.29216 -0.292743 -0.110985 -0.217539 0.473629 0.362003 0.287579 -0.175449 -0.012052 0.386644 0.998425 0.253598 0.677865 0.89237 0.464765 1.33586 0.396327 0.286215 -1.15468 -0.9026 0.114862 1.22519 0.804508 0.562085 -0.0125024 -0.219524 -0.239261 0.684935 -0.844241 0.00139326 -0.0211783 0.305335 -0.297315 0.532864 0.111971 0.551583 0.838199 -0.594233 0.439939 -0.212786 0.908152 0.195384 0.689702 -0.467094 -0.532398 0.212765 0.147165 -1.05654 -0.803662 0.665369 0.387334 -0.62053 
resto_tokyo_expensive_korean_3stars -0.0169493 -1.13999 -1.31002 -0.940527 0.21787 2.12076 -0.307486 -1.27241 -1.16803 -0.908869 0.364852 0.665112 0.520969 -2.52711 -1.75037 0.0949799 0.00775006 -0.905815 -0.422765 1.03036 -0.169984 -1.00593 0.726713 1.4683 0.254919 0.550763 -0.388355 1.58902 0.206112 -0.10936 -0.170997 -0.672574 1.25439 1.3629 0.422628 -0.00904605 -1.9416 0.647931 0.78091 -1.54743 0.127719 -1.07241 0.34376 1.64274 0.0584023 1.30184 -0.0355916 0.927975 0.61226 -0.129062 -0.422737 0.921717 0.0333024 0.0172387 1.09986 1.53181 -0.458006 1.76686 -0.0777754 -0.777704 -1.45414 0.684269 0.895664 0.571127 
resto_seoul_expensive_cantonese_8stars -1.01712 -1.29124 -0.661124 -1.51403 0.619999 1.2953 -0.310457 0.517366 -0.721972 -0.966752 0.0932572 1.04173 0.235238 -1.96121 -1.43916 -0.236429 0.398318 -1.06862 0.091423 0.411941 -0.173662 -0.978349 0.186929 0.63552 0.398785 -0.54145 -1.34779 1.149 0.555548 -0.612347 -1.12006 -1.743 0.674637 1.09817 0.625441 0.694806 -1.41107 0.143982 0.303397 -0.632962 -0.388547 -0.770187 0.539874 0.654473 1.01635 0.968656 -0.438473 -0.209305 -0.309783 -0.947451 -0.372725 -1.00347 1.36136 0.896485 1.51151 0.196282 0.828799 0.578137 1.0389 0.712353 0.248448 -0.0832433 0.343816 -0.463197 
resto_tokyo_expensive_cantonese_2stars_phone 0.565326 -0.890127 -0.782906 -0.576939 -0.603532 0.251641 0.302692 0.338059 -1.22657 -1.01326 -0.0815813 0.098248 0.980207 -1.20515 -0.0303855 -0.631583 -0.839818 0.236926 0.653355 -0.395612 0.897482 0.486326 0.537668 1.30592 -0.72745 0.297475 -0.0233602 1.34478 -0.122195 0.407214 0.391948 0.154937 -0.302651 0.120378 -0.190654 -0.035699 0.177295 0.656832 -0.194068 -0.27497 -0.089026 -0.852965 -0.355462 -0.529454 1.09017 -0.606566 0.401135 0.806873 0.420948 0.919092 0.412524 0.326586 0.843623 0.5057 0.863296 0.351284 0.725437 1.29733 -0.20029 -0.0854828 0.651995 0.281244 -0.656675 -0.13097 
i'd -1.84559 -0.109512 0.0235985 0.408161 -1.00847 0.471865 -0.910187 0.122522 -1.52145 -1.54142 0.871604 -0.617511 -0.342924 -0.894859 -0.221272 1.00493 -0.859246 -0.216353 0.697583 1.3932 0.857288 -1.64749 0.714732 0.385698 -0.693167 0.543409 -1.30482 1.35401 -0.86341 -0.579713 -1.53178 -0.291159 0.228882 1.34186 -0.832143 1.64936 -1.17335 -0.382385 0.819884 -0.887642 0.100204 -0.399501 -0.417084 0.282781 0.347945 0.201819 0.680788 0.88657 -0.0192662 1.24587 -1.50131 -0.575424 0.0469948 0.809851 1.26461 -0.625664 0.00568452 -0.532551 -0.16748 -0.518525 -1.52052 0.04915 0.403193 0.145379 
resto_beijing_expensive_korean_3stars 0.241713 -0.975374 -0.689412 -0.222697 0.816304 0.86835 -0.202361 -0.572502 0.219352 -0.0770016 0.907746 -0.317882 0.537929 -1.05446 -0.85193 -0.441211 0.267734 -0.339297 -0.382112 0.993449 1.01145 -0.990801 0.115808 0.175829 0.914305 0.373639 -0.431526 -0.118048 1.13916 -0.0578131 0.4682 -0.162894 -0.265825 -0.083572 0.0380094 0.423135 -0.401441 0.311732 0.140616 0.436952 -0.0995652 -0.352139 0.889904 0.261115 1.03647 -0.26329 0.427934 -1.00243 -0.745667 0.0267054 -0.921936 -0.76719 0.208235 -0.38838 0.473094 -0.37398 1.1374 0.848613 0.366887 0.0814804 -0.0437147 0.160439 0.0585689 -0.43976 
resto_madrid_moderate_italian_6stars 0.613713 -0.514516 -0.344276 0.026662 -0.356843 0.284076 -1.17642 0.828681 -0.585735 -0.940518 0.223055 0.843917 0.645036 -1.5634 -0.458762 0.854932 0.595393 0.62506 -0.670387 0.0687742 1.12097 0.166877 0.042703 0.669725 -0.0676517 -0.653799 -1.01182 1.35729 0.902403 -0.687244 -1.13619 -1.60799 1.31194 0.797131 0.955416 0.20491 0.495171 -0.324469 1.47143 0.552895 0.494057 -0.352688 -0.0532862 -0.45075 -0.857245 0.816217 0.298472 1.01752 -0.307008 -0.955722 -0.576715 0.173766 0.365845 -0.311952 0.748042 0.827513 1.2286 0.195461 0.31899 -1.03237 -0.688515 -0.00598865 0.585384 0.809428 
resto_seoul_expensive_cantonese_1stars_phone -0.857808 0.336732 -0.948895 -0.590126 -0.243068 -0.103676 -0.0398834 -0.865606 -1.07819 -0.737472 0.365636 0.169543 0.508506 -1.5122 -0.849409 -0.673237 -0.124762 -0.438035 -0.755611 -0.063488 0.817537 -0.0621793 -0.274993 0.226376 0.63755 -0.740523 0.201261 0.805085 -0.300894 -0.842577 0.175406 0.0463359 -0.472871 -0.40364 0.553653 -0.00381682 -0.535334 0.895918 0.152675 0.825516 -0.19253 -0.745825 0.661789 -0.519411 0.29729 -0.310986 0.205674 -0.042368 -0.566768 -0.227658 0.689104 0.728515 -0.200085 0.0600514 1.01563 1.27387 0.583183 1.20037 0.534516 -0.505328 0.310129 -0.11123 -0.380205 0.419995 
wagamama 0.443688 -0.726035 -1.11918 0.049048 1.19105 0.755689 0.0211129 -0.909786 -0.350679 0.786075 0.835456 0.454167 1.50482 -0.522422 -0.444162 0.542589 -0.22272 -0.0394855 -0.313857 0.866479 0.67849 -1.33394 0.894801 0.326971 0.66469 0.707637 -0.377566 0.28336 0.406585 1.16215 0.399124 -0.237893 0.593313 0.551438 1.06357 -0.172954 -0.30014 1.04088 0.645823 -0.0487454 -0.988819 -0.361287 0.331599 0.904555 1.21086 -0.128333 1.16809 -0.722278 0.218785 0.905556 -0.310663 0.28255 -0.201049 -0.143016 0.214904 0.0816948 1.68668 0.0405501 -0.294541 -0.936687 0.422281 0.356799 0.0425142 -0.446223 
i'm -0.670669 0.52292 -0.183602 -0.482846 -0.091471 0.394646 -0.274365 -0.204859 -0.676832 -0.217445 1.4073 -0.6998 0.324663 -1.14583 -0.321828 -0.854598 -0.102059 0.0414828 -0.0605519 0.122414 -0.18747 -0.874487 -0.272164 0.858019 0.486588 -1.08643 -0.381971 1.36699 -0.412874 0.227259 -0.0253392 0.0475609 -0.126396 1.01763 -0.189643 -0.180339 -1.39812 0.409427 0.540957 1.04953 -0.348561 0.328892 -0.250149 0.431933 0.542783 0.809947 0.405292 0.237412 0.0121344 0.432062 -1.73741 0.237321 0.448498 0.616588 0.756533 -0.0400808 -0.368233 0.755729 0.599239 -0.74308 -0.835803 0.348969 0.187741 -0.653878 
theres -0.0329032 0.0929405 -0.797117 -0.844956 0.543921 -0.472758 0.443859 0.135758 -0.889862 -0.782994 0.396244 -0.534993 -0.656505 -0.861693 -0.684222 -0.00636825 0.419729 -0.0216478 -0.652411 -0.429042 0.0469019 -0.296667 -0.4406 0.885775 0.135512 0.300271 -0.912829 -0.49827 -0.83535 0.0395432 -0.368132 -1.32977 -0.336359 0.870766 -0.107614 -0.246818 -0.358923 -0.135353 0.234095 -0.710193 -0.116993 -0.530892 0.0739798 0.51707 0.982694 -0.722298 0.396664 0.985743 -0.602546 -0.695077 -0.249946 0.839205 0.907045 -0.208445 -0.168285 0.741581 0.619016 0.501403 -0.117988 0.348294 -0.0352258 0.139006 -0.794293 0.103502 
resto_bombay_expensive_indian_4stars 0.644448 -0.639613 -1.89088 -0.91349 0.00893099 1.05747 -1.94352 -0.223277 -0.820183 -1.41598 -0.773807 1.05261 1.52997 -1.65515 -0.15361 -0.719838 -0.294302 0.575223 -1.4426 0.783578 1.5971 -0.225095 -0.310877 -0.254197 2.09311 -0.371304 -1.51217 0.892949 0.76402 -0.399763 -0.334139 -1.69276 0.0845207 0.997516 0.485888 1.65824 -1.45348 -0.278335 0.997624 0.716689 -0.284448 -1.55584 -0.248404 1.61803 1.17877 1.05515 1.65643 0.334064 -0.411161 -0.747794 0.098727 1.14028 0.0856224 -0.400975 1.39741 1.26098 -0.343473 0.81914 0.101584 -0.0187366 -0.936382 0.520994 1.11896 -0.457259 
resto_beijing_moderate_cantonese_3stars_phone -0.666696 -0.726812 -0.735485 -0.21065 -0.580874 0.722088 -0.128594 0.268357 0.112287 0.484274 -0.593328 0.449997 -0.719875 -0.348842 -0.371622 0.837207 -0.933576 0.0177168 0.0370411 0.784358 -0.0415442 0.593611 0.67495 0.565259 -0.119173 0.0525733 0.215443 0.868263 -0.650241 0.178983 0.48735 -0.961447 1.12465 0.394026 -0.227997 -0.315149 0.383148 0.0178475 -0.604594 -0.708053 -0.203406 0.444333 -0.322366 -0.464374 0.911002 0.882501 -0.198813 0.964109 -0.676498 -0.683761 -1.23768 0.40085 -0.528177 0.0154095 1.15569 -0.221 -0.00789172 0.618299 0.70524 -0.955302 0.476852 0.494781 0.643491 -0.295144 
resto_beijing_cheap_korean_6stars -0.12604 -0.824889 -2.53044 -1.38928 0.0775647 1.00276 -0.470459 -0.62233 -0.993004 -1.07265 0.603007 0.591741 1.59513 -2.66846 -1.29773 1.04816 -1.10894 -0.102562 -0.169914 1.60823 0.866577 0.0920076 1.32705 2.05406 1.65991 -0.603142 -0.769319 1.11227 -0.709993 1.23057 -0.465041 -2.64266 0.0329335 1.3411 0.941813 0.10898 -0.619593 -0.789987 1.59849 0.434545 -0.494631 -0.727843 0.604935 0.0150815 0.899307 1.20115 0.724712 0.2574 -1.34121 0.140334 -1.30142 -0.564192 0.478163 -0.81781 1.68311 1.42955 1.44502 2.58502 -0.0497994 -1.67578 -1.55114 0.194857 0.77229 -0.356979 
resto_hanoi_moderate_korean_2stars 0.57034 -1.54243 -1.69913 -0.606774 0.663533 1.58978 -1.49893 -0.513202 -1.07195 -1.51139 0.151851 -0.339423 0.317716 -2.8406 -0.919489 -0.22985 -0.297366 0.30782 -0.468514 0.860015 1.38193 0.146456 0.391351 0.592565 0.0795309 0.0686767 -2.06094 1.7319 0.653373 -0.159944 -0.0756628 -1.35152 0.913565 2.18041 -0.0599665 1.69826 -0.678913 0.91256 1.82249 -0.868792 -0.907356 0.156219 0.552617 0.827823 0.391067 1.05078 -0.000105197 0.00902076 -0.972938 0.271861 -1.29611 -0.376559 0.594678 0.810423 0.886911 1.53359 -0.345206 1.79011 0.979109 -1.52541 -1.44676 0.977797 0.902255 0.508801 
resto_madrid_expensive_italian_2stars 0.0541122 -0.265725 -0.756657 -1.396 1.29711 0.645394 -0.359172 0.122821 -0.690804 -0.563875 0.0881307 -0.122607 0.232557 -2.06887 -1.44869 -0.00634602 0.304997 -0.0424925 -0.71398 0.376521 1.10214 0.466622 0.0719501 2.04168 0.841626 0.964129 -1.21019 1.45038 -0.303935 0.146371 0.155561 -1.59774 0.903882 0.486889 0.593071 0.620644 -0.639199 0.521932 -1.00171 -1.09235 0.288407 -0.457032 -0.0177251 0.297379 -0.427314 1.41213 0.179246 -0.578781 0.43423 -0.681475 -0.698288 0.520978 0.880684 0.12017 -0.362195 0.866997 0.421959 1.3695 -0.46386 0.7168 -0.333873 -0.00837613 -0.743854 -0.823718 
loooking 0.253083 0.581312 -0.835883 0.233973 -0.270148 0.808333 -0.888396 0.481143 -1.229 0.327187 0.753116 0.248048 -0.527367 -0.129476 0.173752 0.733294 -0.426231 -0.413578 -0.532642 1.05245 -0.817285 0.513708 0.388507 -0.273566 1.00677 0.0829235 -0.210551 -0.0221579 0.627774 -0.245434 -0.207591 -0.347554 -0.621305 1.28283 0.176331 0.672055 -0.696019 0.699246 0.331033 -0.0692845 -0.0266399 -0.0736789 0.69295 0.882359 0.21367 -0.189738 0.974294 -0.760633 -0.11035 -0.85217 -0.16123 -0.596445 -0.0632729 -0.821641 0.253743 -0.382044 -0.129693 0.144327 1.02207 0.557071 0.626757 -0.766702 0.508284 0.136913 
the_good_luck_chinese_food_takeaway_address 0.197755 0.245138 -0.156825 -0.717822 0.151771 0.978462 -1.05112 -0.40322 -1.30324 -0.21311 0.986829 -0.865488 0.644093 -1.46216 0.22264 -0.0469616 0.290382 -0.821259 0.130753 -0.0976559 -0.598231 0.317063 -0.655532 0.693576 -0.0813154 -0.367845 -0.808718 0.77841 -0.502991 -0.0887743 0.607044 0.22653 -0.767156 0.223754 -0.473601 1.17089 -1.34635 -0.224431 0.0283516 0.181535 -0.421204 0.716885 -0.457029 1.10634 0.36134 0.370273 -0.0101235 0.995342 0.633342 -0.600134 -0.7963 0.194286 -0.271169 -0.264148 0.787843 0.757052 -0.41283 0.0217192 -0.0885466 -1.13816 0.290224 0.790135 0.233121 0.119046 
resto_bangkok_moderate_cantonese_5stars_address 0.509367 -0.333025 -0.460893 -0.524558 0.170854 0.0155365 -1.06543 -0.773745 0.253422 -0.519808 -0.0582147 1.07654 0.594933 -1.03074 -0.23395 -0.141925 -0.415076 -0.162686 0.429293 0.464072 0.765259 -1.09222 0.227502 0.396947 -0.197865 -0.315915 0.475269 0.477491 0.0418999 -0.302456 -0.294666 -0.789217 0.14151 0.126833 0.793528 -0.190908 -0.765945 -0.783751 -0.278468 0.677769 0.139546 -0.30638 -0.556615 0.222628 1.08528 -0.00810023 0.0410403 1.02053 0.463064 -0.701321 -0.261533 -0.732133 0.111314 0.843359 0.394836 0.932998 -0.315302 1.03649 -0.794695 0.679657 0.0786268 -0.425682 0.683418 -0.556863 
resto_rome_cheap_spanish_3stars -1.23448 -0.384243 -1.11888 -0.0395295 0.271899 2.01416 -1.10862 -0.568944 -0.71136 -0.878719 1.43116 0.25301 0.0673895 -2.01597 -0.0743358 -1.06354 0.266974 -1.57075 -0.926958 0.372658 -0.626108 -0.863832 1.14208 1.48531 -0.466058 -0.327312 -1.53319 0.0792881 -0.431164 -0.355799 -0.386578 -2.22929 0.626021 1.97825 -0.0373365 0.916328 0.0881609 -0.8988 0.910082 -0.338867 0.357594 -0.642168 0.0567924 0.469025 1.37823 2.31807 0.9149 -0.264845 -1.59405 -0.106356 -0.302267 1.33649 -0.20604 -0.192952 0.819984 1.68572 -0.698152 1.38474 -0.46133 -1.05175 -1.81454 1.6198 1.04866 -0.469387 
ts 0.571654 0.702494 -0.646592 -0.61957 -0.0612829 0.823607 -0.969501 0.646499 -0.0682533 -0.515267 0.111767 -0.816183 0.69257 -1.0033 -0.46791 -0.24967 0.657165 -0.0653208 -0.174694 -0.69828 -0.0454652 -1.06049 0.912986 -0.626791 -0.701482 0.702967 0.227458 0.0587411 -0.290043 1.0378 -1.02965 -1.07219 0.618067 0.089381 -0.949097 -0.0349974 0.394892 0.65576 1.01286 -0.775524 0.482615 -0.806138 -0.685368 -0.166705 0.714977 0.911593 -0.816694 0.790241 0.727224 0.275743 0.159381 0.485763 0.752923 0.820517 0.661639 0.570062 -0.622135 0.696957 0.597325 -0.0742647 -0.768927 -0.850642 0.866647 0.417754 
resto_bangkok_moderate_cantonese_6stars_phone -0.591381 -0.101023 -0.423994 -0.491382 0.184412 0.358807 0.0777749 -0.233587 0.755564 0.549887 -0.447579 -0.267988 -0.485337 0.0252132 0.0334503 0.974596 0.607918 0.88181 -0.467267 -0.499032 0.494836 -1.03146 0.222252 0.472743 0.45727 -0.363391 -1.11987 0.235702 -0.376268 0.817277 -0.745723 0.289445 -0.310283 0.289799 0.999577 0.973856 -0.877255 -0.433095 0.868449 0.401366 -0.127781 -0.183255 0.322453 0.503753 0.358255 0.362514 0.9444 -0.51311 -0.829414 0.574795 -1.02934 0.381914 -0.146567 0.546233 1.22567 -0.664034 0.356729 0.755107 0.538763 -1.05188 -0.870166 0.759238 0.508053 0.436681 
resto_seoul_expensive_cantonese_5stars -0.380027 -1.3456 -0.738633 -0.867178 -1.03928 1.86983 -0.598777 0.434279 -0.520167 -0.533416 1.91587 1.12228 1.74555 -2.51421 -1.45084 1.27718 -0.41809 -1.03954 0.270578 1.97742 -0.268485 -1.23176 1.33421 1.07931 0.755669 0.442857 -1.76799 2.02773 0.0825377 -0.746872 -0.686499 -1.06039 0.270854 2.63498 0.319744 0.876208 -1.29753 0.169545 1.57415 -0.754711 -1.25695 -0.774788 1.82233 0.341787 1.02722 0.424895 -0.0567017 0.0447338 -1.17539 0.577548 -0.87821 -0.0658782 0.558019 -0.154364 0.944268 0.527045 0.0176551 1.37008 0.661442 -0.830866 -1.63803 1.31891 1.159 0.610364 
nandos_address -1.12783 -0.293119 -0.668591 -0.253809 -0.178891 0.456885 0.482812 -0.00651486 -0.0863533 0.52354 -0.0611815 -0.800478 -0.26014 0.0481434 0.157175 1.269 -0.739119 -0.316456 0.365338 0.728781 -0.305316 0.113829 0.932593 0.946896 0.730438 0.817608 -0.400988 0.2266 -0.684558 0.703187 0.283151 -1.27926 0.500155 0.969015 0.566673 0.198995 -1.48577 -0.593729 0.748905 -0.0609257 -0.751535 0.267922 0.247903 -0.249414 1.68509 0.130967 -0.64371 0.379442 0.235197 -0.564761 -0.672289 -0.917463 0.771983 -0.658118 0.287288 1.24451 -0.396762 1.68146 1.2581 -0.919143 -0.214123 0.635723 -0.243315 -0.105375 
resto_paris_expensive_indian_1stars -0.279465 -1.26789 -1.73855 -1.75195 -0.697551 0.951782 -0.504761 0.408599 -2.00455 -1.92509 0.0216918 -0.317466 0.866262 -1.88945 -1.65851 0.203463 -0.644542 -0.618306 -0.124355 0.645978 -0.880368 0.431008 0.00920214 0.733905 0.754122 -0.417788 -2.37325 1.46277 -0.230509 0.444228 -0.158175 -1.84225 0.884914 1.23693 0.268297 1.32228 -0.39027 -0.479505 -0.454051 0.362105 -0.309015 -1.86137 0.475471 0.255949 0.789865 0.0372816 -0.171934 -1.43205 -0.42743 -1.59815 -1.28735 -0.820202 1.45689 -0.426998 0.510427 0.881232 -0.106844 0.976316 0.326758 -0.569442 -1.14184 0.130314 1.49955 1.06677 
resto_tokyo_cheap_japanese_3stars -1.24436 0.118539 -1.47543 -2.07391 -0.171378 1.32668 -0.481737 -0.244479 -1.1628 -0.466029 1.0198 0.456884 0.0289995 -2.32666 -1.16113 -0.445036 0.418786 -0.895923 -0.488243 0.386962 1.14382 -0.615079 -0.312977 0.806653 0.485274 -0.472231 -1.56415 2.02472 0.149471 0.900298 -0.497493 -2.42306 -0.10931 1.62675 0.752932 2.16409 -1.06553 -0.290948 1.49712 0.250161 -0.626607 -0.836145 1.95644 1.67101 1.81127 1.74186 1.01606 0.0721666 -1.16733 -0.663376 -0.961127 -0.59262 0.63211 0.591907 1.91949 1.3702 1.21981 2.32873 1.40737 -1.32724 -0.340131 -0.335654 0.879896 -0.275119 
resto_bombay_cheap_indian_4stars 0.0376717 0.190926 -0.0875187 -0.516179 0.674462 1.48372 -0.425761 -0.0864626 -0.864706 -0.0158557 0.511523 0.0386766 1.66315 -1.81753 0.0555821 -0.26988 0.0100689 -0.580577 -0.269285 1.17049 0.400312 -0.286435 0.689701 0.572799 0.228824 -1.0203 0.194709 0.17643 0.170425 -0.565846 -0.238143 -2.02768 0.669079 1.28618 -0.705351 -0.348716 -1.11075 -0.0992279 0.519624 0.272158 -0.186468 -0.183954 0.740941 -0.197621 1.83286 0.607491 1.48527 0.104647 0.00704759 -1.23365 0.845836 -0.0732809 -0.214229 -0.558565 -0.515491 1.4361 -0.0806769 0.914643 0.0408662 0.156057 0.270304 0.746665 -0.345838 -0.983351 
resto_madrid_cheap_french_1stars -1.15206 -0.555281 -2.26552 -0.357335 -0.479364 2.09455 -1.46427 -0.43675 -1.41674 -1.33427 1.43701 -0.0578663 1.30725 -1.8051 -0.126465 -0.753225 -0.523566 0.0652558 -1.30212 1.21102 -0.215106 -0.115845 1.42575 1.10369 0.4433 -0.0476088 -0.783199 1.50994 0.255053 -0.3218 -0.707441 -1.8251 1.56313 0.793661 -0.179694 0.23031 -0.0809275 0.406527 0.348172 0.536406 -0.0105995 -1.11185 0.623022 0.525922 1.67863 0.688094 1.58821 0.691772 -0.508829 -1.19657 -0.587067 -0.168378 0.125955 -0.55432 1.97527 0.648991 -0.346145 1.16725 0.526775 -0.442507 -0.193385 0.446907 1.13549 0.413813 
bra 0.303737 0.290637 0.539137 -0.137805 -0.497777 0.511287 -0.186322 -1.03518 -0.916604 -0.0567382 -0.74651 -0.669471 -0.357422 -0.441972 -0.400923 -0.233019 0.391887 -0.104418 0.141422 0.957232 -0.321232 0.0947995 -0.68974 0.953005 0.407767 0.984514 -0.560526 -0.0848829 0.930991 -0.6214 0.127359 -0.366249 0.723002 1.18732 -0.855203 -0.591931 -1.07151 -0.143396 0.720476 0.32042 0.742438 0.605598 -0.440173 0.396703 0.756112 0.823402 0.698867 -0.708414 0.0904952 -0.889387 0.15241 0.417275 -0.185 -0.60472 0.522269 -0.657087 -0.316623 1.02385 1.00835 0.269344 0.80283 -0.455254 0.167966 0.489247 
resto_tokyo_cheap_vietnamese_4stars 0.185064 -0.939558 -1.73911 -0.352545 0.355099 2.32618 -1.39229 -0.245334 -1.25583 -0.366314 0.957668 0.0832702 0.487546 -2.98397 -1.83632 0.950039 -1.44261 -0.229704 -0.119719 1.23541 -0.0580113 -0.325251 1.68202 1.1524 0.359552 0.0735801 -1.6782 1.58992 -0.615205 1.13841 0.111952 -2.43984 1.68103 1.81532 0.307852 0.754127 -1.31355 0.242305 1.12627 -0.64516 -0.774611 -1.74542 -0.0684672 0.897482 2.28151 1.41229 1.86392 1.27247 0.0313452 -0.509753 0.0258166 0.219616 0.602769 0.239782 1.2562 0.821628 1.1286 1.63411 1.19012 -1.32525 -1.22622 0.60341 1.63056 -0.284232 
bedouin_address -0.506499 -1.13941 0.201927 0.308395 0.633764 -0.313026 -0.613081 0.374146 -0.426571 0.344602 1.31424 0.375722 -0.585492 -0.795411 -0.161938 -0.104957 0.532844 -0.388114 0.328776 -0.20986 -0.703542 -0.322036 0.796864 0.232153 0.100599 -1.1007 -0.910087 1.23541 0.463044 0.381699 -0.25585 -0.781252 0.684728 1.26436 -0.133546 1.10293 -0.606887 -0.606116 -0.011577 -0.755696 -0.406594 -0.29554 -0.115373 1.24404 0.366771 -0.0859945 0.779187 0.921151 0.155561 0.436478 -0.434287 0.77188 -0.217501 -0.0818669 0.841067 -0.277531 0.34727 0.945019 -0.132904 -0.706239 -0.768735 0.412246 -0.869513 -0.506995 
